digraph Tree {
node [shape=box, style="rounded", color="black", fontname="helvetica"] ;
edge [fontname="helvetica"] ;
0 [label="down_gps <= -101.6\nsquared_error = 28.4\nsamples = 5450\nvalue = 3.2"] ;
1 [label="lat_gps <= 51.8\nsquared_error = 558.9\nsamples = 17\nvalue = 60.4"] ;
0 -> 1 [labeldistance=2.5, labelangle=45, headlabel="True"] ;
2 [label="lon_gps <= -1.3\nsquared_error = 73.6\nsamples = 10\nvalue = 40.9"] ;
1 -> 2 ;
3 [label="alt_gps <= 116.2\nsquared_error = 36.0\nsamples = 3\nvalue = 51.2"] ;
2 -> 3 ;
4 [label="roll_ins <= -0.0\nsquared_error = 2.4\nsamples = 2\nvalue = 46.4"] ;
3 -> 4 ;
5 [label="squared_error = 0.0\nsamples = 1\nvalue = 45.4"] ;
4 -> 5 ;
6 [label="squared_error = -0.0\nsamples = 1\nvalue = 48.6"] ;
4 -> 6 ;
7 [label="squared_error = -0.0\nsamples = 1\nvalue = 58.4"] ;
3 -> 7 ;
8 [label="vel_east_ins <= -5.4\nsquared_error = 19.7\nsamples = 7\nvalue = 36.2"] ;
2 -> 8 ;
9 [label="squared_error = 0.0\nsamples = 1\nvalue = 22.7"] ;
8 -> 9 ;
10 [label="lon_sigma <= 62.2\nsquared_error = 1.7\nsamples = 6\nvalue = 37.5"] ;
8 -> 10 ;
11 [label="down_gps <= -143.8\nsquared_error = 0.1\nsamples = 5\nvalue = 36.9"] ;
10 -> 11 ;
12 [label="east_gps <= 620043.5\nsquared_error = 0.0\nsamples = 2\nvalue = 37.0"] ;
11 -> 12 ;
13 [label="squared_error = 0.0\nsamples = 1\nvalue = 37.0"] ;
12 -> 13 ;
14 [label="squared_error = 0.0\nsamples = 1\nvalue = 37.2"] ;
12 -> 14 ;
15 [label="down_gps <= -143.7\nsquared_error = 0.0\nsamples = 3\nvalue = 36.6"] ;
11 -> 15 ;
16 [label="squared_error = 0.0\nsamples = 1\nvalue = 36.3"] ;
15 -> 16 ;
17 [label="vel_down_ins <= 0.2\nsquared_error = 0.0\nsamples = 2\nvalue = 36.8"] ;
15 -> 17 ;
18 [label="squared_error = 0.0\nsamples = 1\nvalue = 36.8"] ;
17 -> 18 ;
19 [label="squared_error = 0.0\nsamples = 1\nvalue = 36.7"] ;
17 -> 19 ;
20 [label="squared_error = -0.0\nsamples = 1\nvalue = 40.1"] ;
10 -> 20 ;
21 [label="pitch_ins <= -0.0\nsquared_error = 22.2\nsamples = 7\nvalue = 86.4"] ;
1 -> 21 ;
22 [label="vel_down_ins <= 0.2\nsquared_error = 2.5\nsamples = 3\nvalue = 91.5"] ;
21 -> 22 ;
23 [label="squared_error = 0.0\nsamples = 1\nvalue = 88.4"] ;
22 -> 23 ;
24 [label="pitch_ins <= -0.0\nsquared_error = 0.2\nsamples = 2\nvalue = 92.3"] ;
22 -> 24 ;
25 [label="squared_error = 0.0\nsamples = 1\nvalue = 92.7"] ;
24 -> 25 ;
26 [label="squared_error = -0.0\nsamples = 1\nvalue = 91.8"] ;
24 -> 26 ;
27 [label="vel_east_ins <= -6.0\nsquared_error = 4.6\nsamples = 4\nvalue = 82.8"] ;
21 -> 27 ;
28 [label="pitch_ins <= -0.0\nsquared_error = 0.5\nsamples = 2\nvalue = 81.1"] ;
27 -> 28 ;
29 [label="squared_error = 0.0\nsamples = 1\nvalue = 82.4"] ;
28 -> 29 ;
30 [label="squared_error = 0.0\nsamples = 1\nvalue = 80.7"] ;
28 -> 30 ;
31 [label="vel_north_ins <= -2.0\nsquared_error = 1.5\nsamples = 2\nvalue = 85.0"] ;
27 -> 31 ;
32 [label="squared_error = 0.0\nsamples = 1\nvalue = 86.7"] ;
31 -> 32 ;
33 [label="squared_error = -0.0\nsamples = 1\nvalue = 84.1"] ;
31 -> 33 ;
34 [label="lon_sigma <= 8.3\nsquared_error = 16.0\nsamples = 5433\nvalue = 3.1"] ;
0 -> 34 [labeldistance=2.5, labelangle=-45, headlabel="False"] ;
35 [label="lon_sigma <= 2.6\nsquared_error = 5.8\nsamples = 4862\nvalue = 2.4"] ;
34 -> 35 ;
36 [label="lat_sigma <= 4.7\nsquared_error = 2.1\nsamples = 3297\nvalue = 1.7"] ;
35 -> 36 ;
37 [label="lat_sigma <= 1.8\nsquared_error = 1.2\nsamples = 3057\nvalue = 1.6"] ;
36 -> 37 ;
38 [label="lon_sigma <= 2.4\nsquared_error = 2.3\nsamples = 43\nvalue = 4.7"] ;
37 -> 38 ;
39 [label="lat_sigma <= 1.1\nsquared_error = 0.9\nsamples = 14\nvalue = 3.0"] ;
38 -> 39 ;
40 [label="vel_down_ins <= -0.0\nsquared_error = 0.1\nsamples = 7\nvalue = 2.3"] ;
39 -> 40 ;
41 [label="squared_error = 0.0\nsamples = 1\nvalue = 1.2"] ;
40 -> 41 ;
42 [label="lat_gps <= 51.8\nsquared_error = 0.0\nsamples = 6\nvalue = 2.4"] ;
40 -> 42 ;
43 [label="squared_error = 0.0\nsamples = 1\nvalue = 2.7"] ;
42 -> 43 ;
44 [label="east_gps <= 620106.5\nsquared_error = 0.0\nsamples = 5\nvalue = 2.3"] ;
42 -> 44 ;
45 [label="squared_error = 0.0\nsamples = 2\nvalue = 2.3"] ;
44 -> 45 ;
46 [label="squared_error = -0.0\nsamples = 3\nvalue = 2.3"] ;
44 -> 46 ;
47 [label="vel_east_ins <= -2.2\nsquared_error = 0.8\nsamples = 7\nvalue = 3.6"] ;
39 -> 47 ;
48 [label="squared_error = 0.0\nsamples = 1\nvalue = 2.4"] ;
47 -> 48 ;
49 [label="lon_sigma <= 0.8\nsquared_error = 0.2\nsamples = 6\nvalue = 4.2"] ;
47 -> 49 ;
50 [label="squared_error = 0.0\nsamples = 1\nvalue = 5.2"] ;
49 -> 50 ;
51 [label="alt_gps <= 58.1\nsquared_error = 0.0\nsamples = 5\nvalue = 4.0"] ;
49 -> 51 ;
52 [label="lat_gps <= 51.8\nsquared_error = 0.0\nsamples = 3\nvalue = 4.1"] ;
51 -> 52 ;
53 [label="squared_error = 0.0\nsamples = 1\nvalue = 4.3"] ;
52 -> 53 ;
54 [label="alt_sigma <= 4.4\nsquared_error = 0.0\nsamples = 2\nvalue = 4.1"] ;
52 -> 54 ;
55 [label="squared_error = 0.0\nsamples = 1\nvalue = 4.1"] ;
54 -> 55 ;
56 [label="squared_error = 0.0\nsamples = 1\nvalue = 4.1"] ;
54 -> 56 ;
57 [label="alt_gps <= 58.2\nsquared_error = 0.0\nsamples = 2\nvalue = 3.9"] ;
51 -> 57 ;
58 [label="squared_error = 0.0\nsamples = 1\nvalue = 3.8"] ;
57 -> 58 ;
59 [label="squared_error = 0.0\nsamples = 1\nvalue = 3.9"] ;
57 -> 59 ;
60 [label="north_gps <= 5735930.2\nsquared_error = 0.7\nsamples = 29\nvalue = 5.6"] ;
38 -> 60 ;
61 [label="lat_sigma <= 1.7\nsquared_error = 0.2\nsamples = 18\nvalue = 5.1"] ;
60 -> 61 ;
62 [label="lat_sigma <= 1.7\nsquared_error = 0.1\nsamples = 10\nvalue = 4.7"] ;
61 -> 62 ;
63 [label="alt_sigma <= 4.4\nsquared_error = 0.0\nsamples = 6\nvalue = 4.5"] ;
62 -> 63 ;
64 [label="alt_sigma <= 4.4\nsquared_error = 0.0\nsamples = 2\nvalue = 4.4"] ;
63 -> 64 ;
65 [label="squared_error = 0.0\nsamples = 1\nvalue = 4.3"] ;
64 -> 65 ;
66 [label="squared_error = 0.0\nsamples = 1\nvalue = 4.4"] ;
64 -> 66 ;
67 [label="lat_sigma <= 1.7\nsquared_error = 0.0\nsamples = 4\nvalue = 4.6"] ;
63 -> 67 ;
68 [label="alt_sigma <= 4.5\nsquared_error = 0.0\nsamples = 2\nvalue = 4.6"] ;
67 -> 68 ;
69 [label="squared_error = 0.0\nsamples = 1\nvalue = 4.6"] ;
68 -> 69 ;
70 [label="squared_error = 0.0\nsamples = 1\nvalue = 4.6"] ;
68 -> 70 ;
71 [label="vel_east_ins <= 0.0\nsquared_error = 0.0\nsamples = 2\nvalue = 4.7"] ;
67 -> 71 ;
72 [label="squared_error = 0.0\nsamples = 1\nvalue = 4.7"] ;
71 -> 72 ;
73 [label="squared_error = 0.0\nsamples = 1\nvalue = 4.7"] ;
71 -> 73 ;
74 [label="alt_gps <= 56.2\nsquared_error = 0.0\nsamples = 4\nvalue = 5.0"] ;
62 -> 74 ;
75 [label="squared_error = 0.0\nsamples = 1\nvalue = 5.1"] ;
74 -> 75 ;
76 [label="squared_error = -0.0\nsamples = 3\nvalue = 5.0"] ;
74 -> 76 ;
77 [label="down_gps <= -55.5\nsquared_error = 0.0\nsamples = 8\nvalue = 5.5"] ;
61 -> 77 ;
78 [label="lon_gps <= -1.3\nsquared_error = 0.0\nsamples = 3\nvalue = 5.4"] ;
77 -> 78 ;
79 [label="squared_error = 0.0\nsamples = 1\nvalue = 5.5"] ;
78 -> 79 ;
80 [label="roll_ins <= -0.0\nsquared_error = 0.0\nsamples = 2\nvalue = 5.3"] ;
78 -> 80 ;
81 [label="squared_error = 0.0\nsamples = 1\nvalue = 5.3"] ;
80 -> 81 ;
82 [label="squared_error = 0.0\nsamples = 1\nvalue = 5.3"] ;
80 -> 82 ;
83 [label="vel_north_ins <= 0.2\nsquared_error = 0.0\nsamples = 5\nvalue = 5.7"] ;
77 -> 83 ;
84 [label="lon_sigma <= 2.4\nsquared_error = 0.0\nsamples = 4\nvalue = 5.6"] ;
83 -> 84 ;
85 [label="vel_north_ins <= -0.0\nsquared_error = 0.0\nsamples = 2\nvalue = 5.6"] ;
84 -> 85 ;
86 [label="squared_error = 0.0\nsamples = 1\nvalue = 5.6"] ;
85 -> 86 ;
87 [label="squared_error = 0.0\nsamples = 1\nvalue = 5.6"] ;
85 -> 87 ;
88 [label="vel_north_ins <= 0.1\nsquared_error = 0.0\nsamples = 2\nvalue = 5.7"] ;
84 -> 88 ;
89 [label="squared_error = 0.0\nsamples = 1\nvalue = 5.6"] ;
88 -> 89 ;
90 [label="squared_error = 0.0\nsamples = 1\nvalue = 5.7"] ;
88 -> 90 ;
91 [label="squared_error = 0.0\nsamples = 1\nvalue = 5.8"] ;
83 -> 91 ;
92 [label="east_gps <= 620100.1\nsquared_error = 0.1\nsamples = 11\nvalue = 6.7"] ;
60 -> 92 ;
93 [label="roll_ins <= -0.0\nsquared_error = 0.0\nsamples = 7\nvalue = 6.9"] ;
92 -> 93 ;
94 [label="lon_sigma <= 2.5\nsquared_error = 0.0\nsamples = 4\nvalue = 7.0"] ;
93 -> 94 ;
95 [label="lon_sigma <= 2.5\nsquared_error = 0.0\nsamples = 2\nvalue = 7.1"] ;
94 -> 95 ;
96 [label="squared_error = 0.0\nsamples = 1\nvalue = 7.1"] ;
95 -> 96 ;
97 [label="squared_error = 0.0\nsamples = 1\nvalue = 7.2"] ;
95 -> 97 ;
98 [label="roll_ins <= -0.0\nsquared_error = 0.0\nsamples = 2\nvalue = 6.9"] ;
94 -> 98 ;
99 [label="squared_error = 0.0\nsamples = 1\nvalue = 6.9"] ;
98 -> 99 ;
100 [label="squared_error = -0.0\nsamples = 1\nvalue = 6.9"] ;
98 -> 100 ;
101 [label="north_gps <= 5735939.8\nsquared_error = 0.0\nsamples = 3\nvalue = 6.8"] ;
93 -> 101 ;
102 [label="roll_ins <= -0.0\nsquared_error = 0.0\nsamples = 2\nvalue = 6.7"] ;
101 -> 102 ;
103 [label="squared_error = 0.0\nsamples = 1\nvalue = 6.7"] ;
102 -> 103 ;
104 [label="squared_error = 0.0\nsamples = 1\nvalue = 6.7"] ;
102 -> 104 ;
105 [label="squared_error = -0.0\nsamples = 1\nvalue = 6.8"] ;
101 -> 105 ;
106 [label="east_gps <= 620101.7\nsquared_error = 0.0\nsamples = 4\nvalue = 6.3"] ;
92 -> 106 ;
107 [label="yaw_ins <= 5.9\nsquared_error = 0.0\nsamples = 3\nvalue = 6.4"] ;
106 -> 107 ;
108 [label="north_gps <= 5735932.2\nsquared_error = 0.0\nsamples = 2\nvalue = 6.3"] ;
107 -> 108 ;
109 [label="squared_error = 0.0\nsamples = 1\nvalue = 6.3"] ;
108 -> 109 ;
110 [label="squared_error = 0.0\nsamples = 1\nvalue = 6.3"] ;
108 -> 110 ;
111 [label="squared_error = -0.0\nsamples = 1\nvalue = 6.4"] ;
107 -> 111 ;
112 [label="squared_error = -0.0\nsamples = 1\nvalue = 6.0"] ;
106 -> 112 ;
113 [label="down_gps <= -52.8\nsquared_error = 1.0\nsamples = 3014\nvalue = 1.5"] ;
37 -> 113 ;
114 [label="yaw_ins <= 4.4\nsquared_error = 0.9\nsamples = 2982\nvalue = 1.5"] ;
113 -> 114 ;
115 [label="alt_gps <= 73.6\nsquared_error = 0.6\nsamples = 1831\nvalue = 1.3"] ;
114 -> 115 ;
116 [label="alt_gps <= 65.3\nsquared_error = 0.6\nsamples = 1830\nvalue = 1.3"] ;
115 -> 116 ;
117 [label="north_gps <= 5735542.2\nsquared_error = 0.5\nsamples = 1594\nvalue = 1.2"] ;
116 -> 117 ;
118 [label="yaw_ins <= 1.0\nsquared_error = 0.6\nsamples = 979\nvalue = 1.3"] ;
117 -> 118 ;
119 [label="yaw_ins <= 0.0\nsquared_error = 0.2\nsamples = 111\nvalue = 0.7"] ;
118 -> 119 ;
120 [label="alt_gps <= 60.7\nsquared_error = 0.3\nsamples = 3\nvalue = 2.1"] ;
119 -> 120 ;
121 [label="squared_error = 0.0\nsamples = 1\nvalue = 2.6"] ;
120 -> 121 ;
122 [label="lat_gps <= 51.8\nsquared_error = 0.0\nsamples = 2\nvalue = 1.6"] ;
120 -> 122 ;
123 [label="squared_error = 0.0\nsamples = 1\nvalue = 1.5"] ;
122 -> 123 ;
124 [label="squared_error = 0.0\nsamples = 1\nvalue = 2.0"] ;
122 -> 124 ;
125 [label="lat_gps <= 51.8\nsquared_error = 0.1\nsamples = 108\nvalue = 0.6"] ;
119 -> 125 ;
126 [label="alt_gps <= 64.3\nsquared_error = 0.1\nsamples = 52\nvalue = 0.8"] ;
125 -> 126 ;
127 [label="down_gps <= -55.7\nsquared_error = 0.1\nsamples = 50\nvalue = 0.7"] ;
126 -> 127 ;
128 [label="lon_sigma <= 2.0\nsquared_error = 0.0\nsamples = 44\nvalue = 0.7"] ;
127 -> 128 ;
129 [label="pitch_ins <= -0.0\nsquared_error = 0.0\nsamples = 26\nvalue = 0.6"] ;
128 -> 129 ;
130 [label="roll_ins <= -0.0\nsquared_error = 0.0\nsamples = 17\nvalue = 0.5"] ;
129 -> 130 ;
131 [label="down_gps <= -64.0\nsquared_error = 0.0\nsamples = 12\nvalue = 0.6"] ;
130 -> 131 ;
132 [label="squared_error = 0.0\nsamples = 1\nvalue = 0.8"] ;
131 -> 132 ;
133 [label="down_gps <= -63.5\nsquared_error = 0.0\nsamples = 11\nvalue = 0.6"] ;
131 -> 133 ;
134 [label="lat_sigma <= 2.2\nsquared_error = 0.0\nsamples = 2\nvalue = 0.4"] ;
133 -> 134 ;
135 [label="squared_error = 0.0\nsamples = 1\nvalue = 0.4"] ;
134 -> 135 ;
136 [label="squared_error = 0.0\nsamples = 1\nvalue = 0.4"] ;
134 -> 136 ;
137 [label="yaw_ins <= 0.8\nsquared_error = 0.0\nsamples = 9\nvalue = 0.6"] ;
133 -> 137 ;
138 [label="east_gps <= 619572.7\nsquared_error = 0.0\nsamples = 4\nvalue = 0.5"] ;
137 -> 138 ;
139 [label="squared_error = 0.0\nsamples = 1\nvalue = 0.6"] ;
138 -> 139 ;
140 [label="down_gps <= -59.5\nsquared_error = 0.0\nsamples = 3\nvalue = 0.5"] ;
138 -> 140 ;
141 [label="alt_gps <= 62.3\nsquared_error = 0.0\nsamples = 2\nvalue = 0.5"] ;
140 -> 141 ;
142 [label="squared_error = 0.0\nsamples = 1\nvalue = 0.5"] ;
141 -> 142 ;
143 [label="squared_error = -0.0\nsamples = 1\nvalue = 0.5"] ;
141 -> 143 ;
144 [label="squared_error = -0.0\nsamples = 1\nvalue = 0.4"] ;
140 -> 144 ;
145 [label="pitch_ins <= -0.0\nsquared_error = 0.0\nsamples = 5\nvalue = 0.6"] ;
137 -> 145 ;
146 [label="lat_gps <= 51.8\nsquared_error = 0.0\nsamples = 2\nvalue = 0.6"] ;
145 -> 146 ;
147 [label="squared_error = 0.0\nsamples = 1\nvalue = 0.6"] ;
146 -> 147 ;
148 [label="squared_error = 0.0\nsamples = 1\nvalue = 0.6"] ;
146 -> 148 ;
149 [label="alt_gps <= 62.5\nsquared_error = 0.0\nsamples = 3\nvalue = 0.6"] ;
145 -> 149 ;
150 [label="yaw_ins <= 0.9\nsquared_error = 0.0\nsamples = 2\nvalue = 0.6"] ;
149 -> 150 ;
151 [label="squared_error = 0.0\nsamples = 1\nvalue = 0.6"] ;
150 -> 151 ;
152 [label="squared_error = -0.0\nsamples = 1\nvalue = 0.6"] ;
150 -> 152 ;
153 [label="squared_error = -0.0\nsamples = 1\nvalue = 0.6"] ;
149 -> 153 ;
154 [label="down_gps <= -63.3\nsquared_error = 0.0\nsamples = 5\nvalue = 0.4"] ;
130 -> 154 ;
155 [label="lat_sigma <= 2.2\nsquared_error = 0.0\nsamples = 2\nvalue = 0.3"] ;
154 -> 155 ;
156 [label="squared_error = 0.0\nsamples = 1\nvalue = 0.3"] ;
155 -> 156 ;
157 [label="squared_error = 0.0\nsamples = 1\nvalue = 0.4"] ;
155 -> 157 ;
158 [label="vel_east_ins <= 1.2\nsquared_error = 0.0\nsamples = 3\nvalue = 0.5"] ;
154 -> 158 ;
159 [label="pitch_ins <= -0.0\nsquared_error = 0.0\nsamples = 2\nvalue = 0.5"] ;
158 -> 159 ;
160 [label="squared_error = 0.0\nsamples = 1\nvalue = 0.5"] ;
159 -> 160 ;
161 [label="squared_error = 0.0\nsamples = 1\nvalue = 0.5"] ;
159 -> 161 ;
162 [label="squared_error = -0.0\nsamples = 1\nvalue = 0.6"] ;
158 -> 162 ;
163 [label="down_gps <= -55.8\nsquared_error = 0.0\nsamples = 9\nvalue = 0.7"] ;
129 -> 163 ;
164 [label="vel_down_ins <= 0.0\nsquared_error = 0.0\nsamples = 6\nvalue = 0.8"] ;
163 -> 164 ;
165 [label="squared_error = 0.0\nsamples = 1\nvalue = 1.2"] ;
164 -> 165 ;
166 [label="alt_sigma <= 3.8\nsquared_error = 0.0\nsamples = 5\nvalue = 0.8"] ;
164 -> 166 ;
167 [label="roll_ins <= -0.0\nsquared_error = 0.0\nsamples = 2\nvalue = 1.0"] ;
166 -> 167 ;
168 [label="squared_error = 0.0\nsamples = 1\nvalue = 0.9"] ;
167 -> 168 ;
169 [label="squared_error = 0.0\nsamples = 1\nvalue = 1.0"] ;
167 -> 169 ;
170 [label="east_gps <= 619581.1\nsquared_error = 0.0\nsamples = 3\nvalue = 0.8"] ;
166 -> 170 ;
171 [label="lon_sigma <= 1.5\nsquared_error = 0.0\nsamples = 2\nvalue = 0.7"] ;
170 -> 171 ;
172 [label="squared_error = 0.0\nsamples = 1\nvalue = 0.7"] ;
171 -> 172 ;
173 [label="squared_error = 0.0\nsamples = 1\nvalue = 0.7"] ;
171 -> 173 ;
174 [label="squared_error = 0.0\nsamples = 1\nvalue = 0.8"] ;
170 -> 174 ;
175 [label="north_gps <= 5734982.0\nsquared_error = 0.0\nsamples = 3\nvalue = 0.5"] ;
163 -> 175 ;
176 [label="squared_error = 0.0\nsamples = 1\nvalue = 0.5"] ;
175 -> 176 ;
177 [label="vel_down_ins <= 0.0\nsquared_error = 0.0\nsamples = 2\nvalue = 0.6"] ;
175 -> 177 ;
178 [label="squared_error = 0.0\nsamples = 1\nvalue = 0.6"] ;
177 -> 178 ;
179 [label="squared_error = 0.0\nsamples = 1\nvalue = 0.6"] ;
177 -> 179 ;
180 [label="alt_gps <= 62.1\nsquared_error = 0.0\nsamples = 18\nvalue = 0.8"] ;
128 -> 180 ;
181 [label="lon_gps <= -1.3\nsquared_error = 0.0\nsamples = 2\nvalue = 0.4"] ;
180 -> 181 ;
182 [label="squared_error = 0.0\nsamples = 1\nvalue = 0.5"] ;
181 -> 182 ;
183 [label="squared_error = -0.0\nsamples = 1\nvalue = 0.3"] ;
181 -> 183 ;
184 [label="down_gps <= -63.4\nsquared_error = 0.0\nsamples = 16\nvalue = 0.9"] ;
180 -> 184 ;
185 [label="pitch_ins <= -0.0\nsquared_error = 0.0\nsamples = 5\nvalue = 1.0"] ;
184 -> 185 ;
186 [label="vel_down_ins <= 0.0\nsquared_error = 0.0\nsamples = 2\nvalue = 0.9"] ;
185 -> 186 ;
187 [label="squared_error = 0.0\nsamples = 1\nvalue = 0.9"] ;
186 -> 187 ;
188 [label="squared_error = -0.0\nsamples = 1\nvalue = 0.9"] ;
186 -> 188 ;
189 [label="pitch_ins <= -0.0\nsquared_error = 0.0\nsamples = 3\nvalue = 1.1"] ;
185 -> 189 ;
190 [label="lon_gps <= -1.3\nsquared_error = 0.0\nsamples = 2\nvalue = 1.1"] ;
189 -> 190 ;
191 [label="squared_error = 0.0\nsamples = 1\nvalue = 1.2"] ;
190 -> 191 ;
192 [label="squared_error = -0.0\nsamples = 1\nvalue = 1.1"] ;
190 -> 192 ;
193 [label="squared_error = 0.0\nsamples = 1\nvalue = 0.9"] ;
189 -> 193 ;
194 [label="yaw_ins <= 0.5\nsquared_error = 0.0\nsamples = 11\nvalue = 0.8"] ;
184 -> 194 ;
195 [label="squared_error = 0.0\nsamples = 1\nvalue = 1.0"] ;
194 -> 195 ;
196 [label="vel_east_ins <= 1.6\nsquared_error = 0.0\nsamples = 10\nvalue = 0.8"] ;
194 -> 196 ;
197 [label="down_gps <= -63.0\nsquared_error = 0.0\nsamples = 6\nvalue = 0.7"] ;
196 -> 197 ;
198 [label="down_gps <= -63.3\nsquared_error = 0.0\nsamples = 3\nvalue = 0.8"] ;
197 -> 198 ;
199 [label="squared_error = 0.0\nsamples = 1\nvalue = 0.8"] ;
198 -> 199 ;
200 [label="lon_gps <= -1.3\nsquared_error = 0.0\nsamples = 2\nvalue = 0.7"] ;
198 -> 200 ;
201 [label="squared_error = 0.0\nsamples = 1\nvalue = 0.7"] ;
200 -> 201 ;
202 [label="squared_error = 0.0\nsamples = 1\nvalue = 0.8"] ;
200 -> 202 ;
203 [label="lat_sigma <= 3.4\nsquared_error = 0.0\nsamples = 3\nvalue = 0.6"] ;
197 -> 203 ;
204 [label="lon_gps <= -1.3\nsquared_error = 0.0\nsamples = 2\nvalue = 0.7"] ;
203 -> 204 ;
205 [label="squared_error = 0.0\nsamples = 1\nvalue = 0.7"] ;
204 -> 205 ;
206 [label="squared_error = -0.0\nsamples = 1\nvalue = 0.7"] ;
204 -> 206 ;
207 [label="squared_error = -0.0\nsamples = 1\nvalue = 0.5"] ;
203 -> 207 ;
208 [label="alt_sigma <= 8.7\nsquared_error = 0.0\nsamples = 4\nvalue = 0.8"] ;
196 -> 208 ;
209 [label="east_gps <= 620461.2\nsquared_error = 0.0\nsamples = 3\nvalue = 0.9"] ;
208 -> 209 ;
210 [label="vel_north_ins <= 1.6\nsquared_error = 0.0\nsamples = 2\nvalue = 0.9"] ;
209 -> 210 ;
211 [label="squared_error = 0.0\nsamples = 1\nvalue = 0.9"] ;
210 -> 211 ;
212 [label="squared_error = 0.0\nsamples = 1\nvalue = 0.9"] ;
210 -> 212 ;
213 [label="squared_error = -0.0\nsamples = 1\nvalue = 0.8"] ;
209 -> 213 ;
214 [label="squared_error = -0.0\nsamples = 1\nvalue = 0.7"] ;
208 -> 214 ;
215 [label="yaw_ins <= 0.7\nsquared_error = 0.1\nsamples = 6\nvalue = 1.1"] ;
127 -> 215 ;
216 [label="roll_ins <= 0.0\nsquared_error = 0.0\nsamples = 2\nvalue = 0.8"] ;
215 -> 216 ;
217 [label="squared_error = 0.0\nsamples = 1\nvalue = 0.8"] ;
216 -> 217 ;
218 [label="squared_error = 0.0\nsamples = 1\nvalue = 0.8"] ;
216 -> 218 ;
219 [label="vel_down_ins <= 0.1\nsquared_error = 0.1\nsamples = 4\nvalue = 1.3"] ;
215 -> 219 ;
220 [label="lon_sigma <= 1.6\nsquared_error = 0.0\nsamples = 3\nvalue = 1.5"] ;
219 -> 220 ;
221 [label="lat_sigma <= 2.1\nsquared_error = 0.0\nsamples = 2\nvalue = 1.6"] ;
220 -> 221 ;
222 [label="squared_error = 0.0\nsamples = 1\nvalue = 1.5"] ;
221 -> 222 ;
223 [label="squared_error = 0.0\nsamples = 1\nvalue = 1.6"] ;
221 -> 223 ;
224 [label="squared_error = 0.0\nsamples = 1\nvalue = 1.3"] ;
220 -> 224 ;
225 [label="squared_error = -0.0\nsamples = 1\nvalue = 0.9"] ;
219 -> 225 ;
226 [label="east_gps <= 620390.2\nsquared_error = 0.0\nsamples = 2\nvalue = 1.4"] ;
126 -> 226 ;
227 [label="squared_error = 0.0\nsamples = 1\nvalue = 1.2"] ;
226 -> 227 ;
228 [label="squared_error = -0.0\nsamples = 1\nvalue = 1.5"] ;
226 -> 228 ;
229 [label="east_gps <= 620095.7\nsquared_error = 0.1\nsamples = 56\nvalue = 0.5"] ;
125 -> 229 ;
230 [label="north_gps <= 5735433.2\nsquared_error = 0.0\nsamples = 29\nvalue = 0.3"] ;
229 -> 230 ;
231 [label="lat_sigma <= 2.3\nsquared_error = 0.0\nsamples = 27\nvalue = 0.3"] ;
230 -> 231 ;
232 [label="down_gps <= -64.0\nsquared_error = 0.0\nsamples = 7\nvalue = 0.2"] ;
231 -> 232 ;
233 [label="squared_error = 0.0\nsamples = 1\nvalue = 0.4"] ;
232 -> 233 ;
234 [label="yaw_ins <= 0.9\nsquared_error = 0.0\nsamples = 6\nvalue = 0.2"] ;
232 -> 234 ;
235 [label="roll_ins <= 0.0\nsquared_error = 0.0\nsamples = 3\nvalue = 0.2"] ;
234 -> 235 ;
236 [label="squared_error = 0.0\nsamples = 1\nvalue = 0.2"] ;
235 -> 236 ;
237 [label="roll_ins <= 0.0\nsquared_error = 0.0\nsamples = 2\nvalue = 0.2"] ;
235 -> 237 ;
238 [label="squared_error = 0.0\nsamples = 1\nvalue = 0.2"] ;
237 -> 238 ;
239 [label="squared_error = 0.0\nsamples = 1\nvalue = 0.2"] ;
237 -> 239 ;
240 [label="pitch_ins <= 0.0\nsquared_error = 0.0\nsamples = 3\nvalue = 0.1"] ;
234 -> 240 ;
241 [label="squared_error = 0.0\nsamples = 2\nvalue = 0.1"] ;
240 -> 241 ;
242 [label="squared_error = -0.0\nsamples = 1\nvalue = 0.1"] ;
240 -> 242 ;
243 [label="lat_sigma <= 2.4\nsquared_error = 0.0\nsamples = 20\nvalue = 0.4"] ;
231 -> 243 ;
244 [label="vel_north_ins <= 0.0\nsquared_error = 0.0\nsamples = 7\nvalue = 0.4"] ;
243 -> 244 ;
245 [label="yaw_ins <= 0.9\nsquared_error = 0.0\nsamples = 4\nvalue = 0.5"] ;
244 -> 245 ;
246 [label="alt_gps <= 63.8\nsquared_error = 0.0\nsamples = 2\nvalue = 0.5"] ;
245 -> 246 ;
247 [label="squared_error = 0.0\nsamples = 1\nvalue = 0.5"] ;
246 -> 247 ;
248 [label="squared_error = -0.0\nsamples = 1\nvalue = 0.5"] ;
246 -> 248 ;
249 [label="num_sat <= 7.5\nsquared_error = 0.0\nsamples = 2\nvalue = 0.6"] ;
245 -> 249 ;
250 [label="squared_error = 0.0\nsamples = 1\nvalue = 0.6"] ;
249 -> 250 ;
251 [label="squared_error = 0.0\nsamples = 1\nvalue = 0.5"] ;
249 -> 251 ;
252 [label="vel_east_ins <= 0.0\nsquared_error = 0.0\nsamples = 3\nvalue = 0.4"] ;
244 -> 252 ;
253 [label="vel_north_ins <= 0.0\nsquared_error = 0.0\nsamples = 2\nvalue = 0.4"] ;
252 -> 253 ;
254 [label="squared_error = 0.0\nsamples = 1\nvalue = 0.4"] ;
253 -> 254 ;
255 [label="squared_error = 0.0\nsamples = 1\nvalue = 0.4"] ;
253 -> 255 ;
256 [label="squared_error = -0.0\nsamples = 1\nvalue = 0.2"] ;
252 -> 256 ;
257 [label="yaw_ins <= 0.9\nsquared_error = 0.0\nsamples = 13\nvalue = 0.3"] ;
243 -> 257 ;
258 [label="alt_gps <= 63.6\nsquared_error = 0.0\nsamples = 2\nvalue = 0.1"] ;
257 -> 258 ;
259 [label="squared_error = 0.0\nsamples = 1\nvalue = 0.2"] ;
258 -> 259 ;
260 [label="squared_error = 0.0\nsamples = 1\nvalue = 0.1"] ;
258 -> 260 ;
261 [label="num_sat <= 7.5\nsquared_error = 0.0\nsamples = 11\nvalue = 0.3"] ;
257 -> 261 ;
262 [label="vel_north_ins <= 0.1\nsquared_error = 0.0\nsamples = 9\nvalue = 0.3"] ;
261 -> 262 ;
263 [label="alt_gps <= 63.4\nsquared_error = 0.0\nsamples = 6\nvalue = 0.3"] ;
262 -> 263 ;
264 [label="squared_error = 0.0\nsamples = 1\nvalue = 0.4"] ;
263 -> 264 ;
265 [label="lon_gps <= -1.3\nsquared_error = 0.0\nsamples = 5\nvalue = 0.3"] ;
263 -> 265 ;
266 [label="squared_error = 0.0\nsamples = 1\nvalue = 0.4"] ;
265 -> 266 ;
267 [label="alt_sigma <= 4.4\nsquared_error = 0.0\nsamples = 4\nvalue = 0.3"] ;
265 -> 267 ;
268 [label="squared_error = 0.0\nsamples = 1\nvalue = 0.3"] ;
267 -> 268 ;
269 [label="squared_error = -0.0\nsamples = 3\nvalue = 0.3"] ;
267 -> 269 ;
270 [label="down_gps <= -62.8\nsquared_error = 0.0\nsamples = 3\nvalue = 0.2"] ;
262 -> 270 ;
271 [label="east_gps <= 620095.0\nsquared_error = 0.0\nsamples = 2\nvalue = 0.2"] ;
270 -> 271 ;
272 [label="squared_error = 0.0\nsamples = 1\nvalue = 0.2"] ;
271 -> 272 ;
273 [label="squared_error = -0.0\nsamples = 1\nvalue = 0.2"] ;
271 -> 273 ;
274 [label="squared_error = 0.0\nsamples = 1\nvalue = 0.3"] ;
270 -> 274 ;
275 [label="east_gps <= 620095.4\nsquared_error = 0.0\nsamples = 2\nvalue = 0.4"] ;
261 -> 275 ;
276 [label="squared_error = 0.0\nsamples = 1\nvalue = 0.3"] ;
275 -> 276 ;
277 [label="squared_error = 0.0\nsamples = 1\nvalue = 0.6"] ;
275 -> 277 ;
278 [label="vel_down_ins <= -0.0\nsquared_error = 0.0\nsamples = 2\nvalue = 0.7"] ;
230 -> 278 ;
279 [label="squared_error = 0.0\nsamples = 1\nvalue = 0.6"] ;
278 -> 279 ;
280 [label="squared_error = 0.0\nsamples = 1\nvalue = 0.8"] ;
278 -> 280 ;
281 [label="lat_sigma <= 2.8\nsquared_error = 0.0\nsamples = 27\nvalue = 0.6"] ;
229 -> 281 ;
282 [label="alt_gps <= 63.5\nsquared_error = 0.0\nsamples = 26\nvalue = 0.7"] ;
281 -> 282 ;
283 [label="pitch_ins <= 0.0\nsquared_error = 0.0\nsamples = 9\nvalue = 0.6"] ;
282 -> 283 ;
284 [label="vel_down_ins <= -0.1\nsquared_error = 0.0\nsamples = 5\nvalue = 0.6"] ;
283 -> 284 ;
285 [label="alt_sigma <= 4.4\nsquared_error = 0.0\nsamples = 3\nvalue = 0.6"] ;
284 -> 285 ;
286 [label="pitch_ins <= 0.0\nsquared_error = 0.0\nsamples = 2\nvalue = 0.5"] ;
285 -> 286 ;
287 [label="squared_error = 0.0\nsamples = 1\nvalue = 0.6"] ;
286 -> 287 ;
288 [label="squared_error = -0.0\nsamples = 1\nvalue = 0.5"] ;
286 -> 288 ;
289 [label="squared_error = 0.0\nsamples = 1\nvalue = 0.6"] ;
285 -> 289 ;
290 [label="yaw_ins <= 0.9\nsquared_error = 0.0\nsamples = 2\nvalue = 0.7"] ;
284 -> 290 ;
291 [label="squared_error = 0.0\nsamples = 1\nvalue = 0.7"] ;
290 -> 291 ;
292 [label="squared_error = 0.0\nsamples = 1\nvalue = 0.7"] ;
290 -> 292 ;
293 [label="vel_down_ins <= -0.1\nsquared_error = 0.0\nsamples = 4\nvalue = 0.5"] ;
283 -> 293 ;
294 [label="squared_error = 0.0\nsamples = 1\nvalue = 0.5"] ;
293 -> 294 ;
295 [label="lat_sigma <= 2.4\nsquared_error = 0.0\nsamples = 3\nvalue = 0.5"] ;
293 -> 295 ;
296 [label="squared_error = 0.0\nsamples = 1\nvalue = 0.5"] ;
295 -> 296 ;
297 [label="down_gps <= -63.4\nsquared_error = 0.0\nsamples = 2\nvalue = 0.5"] ;
295 -> 297 ;
298 [label="squared_error = 0.0\nsamples = 1\nvalue = 0.5"] ;
297 -> 298 ;
299 [label="squared_error = 0.0\nsamples = 1\nvalue = 0.5"] ;
297 -> 299 ;
300 [label="alt_gps <= 63.5\nsquared_error = 0.0\nsamples = 17\nvalue = 0.7"] ;
282 -> 300 ;
301 [label="vel_down_ins <= -0.1\nsquared_error = 0.0\nsamples = 3\nvalue = 0.9"] ;
300 -> 301 ;
302 [label="squared_error = 0.0\nsamples = 1\nvalue = 0.8"] ;
301 -> 302 ;
303 [label="down_gps <= -63.5\nsquared_error = 0.0\nsamples = 2\nvalue = 0.9"] ;
301 -> 303 ;
304 [label="squared_error = 0.0\nsamples = 1\nvalue = 1.0"] ;
303 -> 304 ;
305 [label="squared_error = 0.0\nsamples = 1\nvalue = 0.9"] ;
303 -> 305 ;
306 [label="north_gps <= 5735437.8\nsquared_error = 0.0\nsamples = 14\nvalue = 0.7"] ;
300 -> 306 ;
307 [label="yaw_ins <= 0.9\nsquared_error = 0.0\nsamples = 12\nvalue = 0.6"] ;
306 -> 307 ;
308 [label="yaw_ins <= 0.9\nsquared_error = 0.0\nsamples = 6\nvalue = 0.6"] ;
307 -> 308 ;
309 [label="vel_east_ins <= 1.2\nsquared_error = 0.0\nsamples = 2\nvalue = 0.5"] ;
308 -> 309 ;
310 [label="squared_error = 0.0\nsamples = 1\nvalue = 0.5"] ;
309 -> 310 ;
311 [label="squared_error = 0.0\nsamples = 1\nvalue = 0.5"] ;
309 -> 311 ;
312 [label="lat_sigma <= 2.4\nsquared_error = 0.0\nsamples = 4\nvalue = 0.6"] ;
308 -> 312 ;
313 [label="roll_ins <= 0.0\nsquared_error = 0.0\nsamples = 3\nvalue = 0.6"] ;
312 -> 313 ;
314 [label="lat_sigma <= 2.3\nsquared_error = 0.0\nsamples = 2\nvalue = 0.7"] ;
313 -> 314 ;
315 [label="squared_error = 0.0\nsamples = 1\nvalue = 0.7"] ;
314 -> 315 ;
316 [label="squared_error = 0.0\nsamples = 1\nvalue = 0.6"] ;
314 -> 316 ;
317 [label="squared_error = -0.0\nsamples = 1\nvalue = 0.6"] ;
313 -> 317 ;
318 [label="squared_error = 0.0\nsamples = 1\nvalue = 0.5"] ;
312 -> 318 ;
319 [label="alt_sigma <= 4.3\nsquared_error = 0.0\nsamples = 6\nvalue = 0.7"] ;
307 -> 319 ;
320 [label="squared_error = 0.0\nsamples = 1\nvalue = 0.9"] ;
319 -> 320 ;
321 [label="vel_east_ins <= -0.0\nsquared_error = 0.0\nsamples = 5\nvalue = 0.7"] ;
319 -> 321 ;
322 [label="pitch_ins <= 0.0\nsquared_error = 0.0\nsamples = 2\nvalue = 0.7"] ;
321 -> 322 ;
323 [label="squared_error = 0.0\nsamples = 1\nvalue = 0.6"] ;
322 -> 323 ;
324 [label="squared_error = -0.0\nsamples = 1\nvalue = 0.7"] ;
322 -> 324 ;
325 [label="alt_sigma <= 4.4\nsquared_error = 0.0\nsamples = 3\nvalue = 0.7"] ;
321 -> 325 ;
326 [label="squared_error = 0.0\nsamples = 1\nvalue = 0.7"] ;
325 -> 326 ;
327 [label="pitch_ins <= 0.0\nsquared_error = 0.0\nsamples = 2\nvalue = 0.7"] ;
325 -> 327 ;
328 [label="squared_error = 0.0\nsamples = 1\nvalue = 0.7"] ;
327 -> 328 ;
329 [label="squared_error = 0.0\nsamples = 1\nvalue = 0.7"] ;
327 -> 329 ;
330 [label="vel_east_ins <= 1.5\nsquared_error = 0.0\nsamples = 2\nvalue = 0.8"] ;
306 -> 330 ;
331 [label="squared_error = 0.0\nsamples = 1\nvalue = 0.9"] ;
330 -> 331 ;
332 [label="squared_error = -0.0\nsamples = 1\nvalue = 0.8"] ;
330 -> 332 ;
333 [label="squared_error = 0.0\nsamples = 1\nvalue = 0.3"] ;
281 -> 333 ;
334 [label="lat_gps <= 51.8\nsquared_error = 0.6\nsamples = 868\nvalue = 1.4"] ;
118 -> 334 ;
335 [label="lon_gps <= -1.3\nsquared_error = 0.6\nsamples = 735\nvalue = 1.3"] ;
334 -> 335 ;
336 [label="vel_east_ins <= 4.5\nsquared_error = 0.6\nsamples = 628\nvalue = 1.4"] ;
335 -> 336 ;
337 [label="lon_sigma <= 2.2\nsquared_error = 0.5\nsamples = 437\nvalue = 1.2"] ;
336 -> 337 ;
338 [label="vel_east_ins <= 0.3\nsquared_error = 0.3\nsamples = 305\nvalue = 1.1"] ;
337 -> 338 ;
339 [label="lat_gps <= 51.8\nsquared_error = 0.2\nsamples = 123\nvalue = 0.8"] ;
338 -> 339 ;
340 [label="down_gps <= -62.6\nsquared_error = 0.4\nsamples = 4\nvalue = 2.1"] ;
339 -> 340 ;
341 [label="north_gps <= 5734970.2\nsquared_error = 0.0\nsamples = 2\nvalue = 2.8"] ;
340 -> 341 ;
342 [label="squared_error = 0.0\nsamples = 1\nvalue = 2.9"] ;
341 -> 342 ;
343 [label="squared_error = -0.0\nsamples = 1\nvalue = 2.7"] ;
341 -> 343 ;
344 [label="lon_gps <= -1.3\nsquared_error = 0.0\nsamples = 2\nvalue = 1.6"] ;
340 -> 344 ;
345 [label="squared_error = 0.0\nsamples = 1\nvalue = 1.4"] ;
344 -> 345 ;
346 [label="squared_error = -0.0\nsamples = 1\nvalue = 1.8"] ;
344 -> 346 ;
347 [label="lon_gps <= -1.3\nsquared_error = 0.1\nsamples = 119\nvalue = 0.7"] ;
339 -> 347 ;
348 [label="vel_down_ins <= 0.0\nsquared_error = 0.2\nsamples = 14\nvalue = 1.4"] ;
347 -> 348 ;
349 [label="vel_east_ins <= -3.4\nsquared_error = 0.1\nsamples = 11\nvalue = 1.5"] ;
348 -> 349 ;
350 [label="lon_sigma <= 1.6\nsquared_error = 0.0\nsamples = 6\nvalue = 1.8"] ;
349 -> 350 ;
351 [label="pitch_ins <= -0.0\nsquared_error = 0.0\nsamples = 2\nvalue = 1.5"] ;
350 -> 351 ;
352 [label="squared_error = 0.0\nsamples = 1\nvalue = 1.5"] ;
351 -> 352 ;
353 [label="squared_error = 0.0\nsamples = 1\nvalue = 1.6"] ;
351 -> 353 ;
354 [label="alt_sigma <= 4.4\nsquared_error = 0.0\nsamples = 4\nvalue = 1.9"] ;
350 -> 354 ;
355 [label="alt_gps <= 56.6\nsquared_error = 0.0\nsamples = 3\nvalue = 1.8"] ;
354 -> 355 ;
356 [label="vel_north_ins <= -3.2\nsquared_error = 0.0\nsamples = 2\nvalue = 1.9"] ;
355 -> 356 ;
357 [label="squared_error = 0.0\nsamples = 1\nvalue = 1.9"] ;
356 -> 357 ;
358 [label="squared_error = 0.0\nsamples = 1\nvalue = 1.9"] ;
356 -> 358 ;
359 [label="squared_error = 0.0\nsamples = 1\nvalue = 1.8"] ;
355 -> 359 ;
360 [label="squared_error = 0.0\nsamples = 1\nvalue = 2.0"] ;
354 -> 360 ;
361 [label="vel_east_ins <= 0.2\nsquared_error = 0.0\nsamples = 5\nvalue = 1.2"] ;
349 -> 361 ;
362 [label="down_gps <= -56.4\nsquared_error = 0.0\nsamples = 4\nvalue = 1.2"] ;
361 -> 362 ;
363 [label="alt_sigma <= 4.4\nsquared_error = 0.0\nsamples = 3\nvalue = 1.2"] ;
362 -> 363 ;
364 [label="squared_error = 0.0\nsamples = 1\nvalue = 1.2"] ;
363 -> 364 ;
365 [label="num_sat <= 7.5\nsquared_error = 0.0\nsamples = 2\nvalue = 1.2"] ;
363 -> 365 ;
366 [label="squared_error = 0.0\nsamples = 1\nvalue = 1.2"] ;
365 -> 366 ;
367 [label="squared_error = -0.0\nsamples = 1\nvalue = 1.2"] ;
365 -> 367 ;
368 [label="squared_error = -0.0\nsamples = 1\nvalue = 1.3"] ;
362 -> 368 ;
369 [label="squared_error = 0.0\nsamples = 1\nvalue = 0.8"] ;
361 -> 369 ;
370 [label="vel_north_ins <= -3.6\nsquared_error = 0.0\nsamples = 3\nvalue = 0.8"] ;
348 -> 370 ;
371 [label="squared_error = 0.0\nsamples = 1\nvalue = 1.0"] ;
370 -> 371 ;
372 [label="vel_east_ins <= -4.5\nsquared_error = 0.0\nsamples = 2\nvalue = 0.6"] ;
370 -> 372 ;
373 [label="squared_error = 0.0\nsamples = 1\nvalue = 0.7"] ;
372 -> 373 ;
374 [label="squared_error = 0.0\nsamples = 1\nvalue = 0.6"] ;
372 -> 374 ;
375 [label="lat_gps <= 51.8\nsquared_error = 0.1\nsamples = 105\nvalue = 0.7"] ;
347 -> 375 ;
376 [label="alt_gps <= 59.0\nsquared_error = 0.1\nsamples = 39\nvalue = 0.4"] ;
375 -> 376 ;
377 [label="lon_gps <= -1.3\nsquared_error = 0.0\nsamples = 30\nvalue = 0.3"] ;
376 -> 377 ;
378 [label="alt_sigma <= 4.5\nsquared_error = 0.0\nsamples = 5\nvalue = 0.5"] ;
377 -> 378 ;
379 [label="pitch_ins <= -0.0\nsquared_error = 0.0\nsamples = 3\nvalue = 0.5"] ;
378 -> 379 ;
380 [label="lon_sigma <= 1.6\nsquared_error = 0.0\nsamples = 2\nvalue = 0.5"] ;
379 -> 380 ;
381 [label="squared_error = 0.0\nsamples = 1\nvalue = 0.5"] ;
380 -> 381 ;
382 [label="squared_error = 0.0\nsamples = 1\nvalue = 0.5"] ;
380 -> 382 ;
383 [label="squared_error = 0.0\nsamples = 1\nvalue = 0.4"] ;
379 -> 383 ;
384 [label="down_gps <= -57.6\nsquared_error = 0.0\nsamples = 2\nvalue = 0.6"] ;
378 -> 384 ;
385 [label="squared_error = 0.0\nsamples = 1\nvalue = 0.6"] ;
384 -> 385 ;
386 [label="squared_error = -0.0\nsamples = 1\nvalue = 0.6"] ;
384 -> 386 ;
387 [label="lon_sigma <= 1.8\nsquared_error = 0.0\nsamples = 25\nvalue = 0.2"] ;
377 -> 387 ;
388 [label="vel_north_ins <= 0.0\nsquared_error = 0.0\nsamples = 16\nvalue = 0.3"] ;
387 -> 388 ;
389 [label="lat_sigma <= 2.0\nsquared_error = 0.0\nsamples = 10\nvalue = 0.2"] ;
388 -> 389 ;
390 [label="north_gps <= 5734971.2\nsquared_error = 0.0\nsamples = 9\nvalue = 0.2"] ;
389 -> 390 ;
391 [label="pitch_ins <= -0.0\nsquared_error = 0.0\nsamples = 6\nvalue = 0.1"] ;
390 -> 391 ;
392 [label="alt_sigma <= 4.4\nsquared_error = 0.0\nsamples = 4\nvalue = 0.1"] ;
391 -> 392 ;
393 [label="squared_error = 0.0\nsamples = 1\nvalue = 0.2"] ;
392 -> 393 ;
394 [label="east_gps <= 619812.7\nsquared_error = 0.0\nsamples = 3\nvalue = 0.1"] ;
392 -> 394 ;
395 [label="pitch_ins <= -0.0\nsquared_error = 0.0\nsamples = 2\nvalue = 0.1"] ;
394 -> 395 ;
396 [label="squared_error = 0.0\nsamples = 1\nvalue = 0.1"] ;
395 -> 396 ;
397 [label="squared_error = 0.0\nsamples = 1\nvalue = 0.1"] ;
395 -> 397 ;
398 [label="squared_error = 0.0\nsamples = 1\nvalue = 0.1"] ;
394 -> 398 ;
399 [label="alt_gps <= 58.1\nsquared_error = 0.0\nsamples = 2\nvalue = 0.2"] ;
391 -> 399 ;
400 [label="squared_error = 0.0\nsamples = 1\nvalue = 0.2"] ;
399 -> 400 ;
401 [label="squared_error = -0.0\nsamples = 1\nvalue = 0.2"] ;
399 -> 401 ;
402 [label="vel_down_ins <= -0.0\nsquared_error = 0.0\nsamples = 3\nvalue = 0.2"] ;
390 -> 402 ;
403 [label="lon_sigma <= 1.6\nsquared_error = 0.0\nsamples = 2\nvalue = 0.2"] ;
402 -> 403 ;
404 [label="squared_error = 0.0\nsamples = 1\nvalue = 0.2"] ;
403 -> 404 ;
405 [label="squared_error = 0.0\nsamples = 1\nvalue = 0.2"] ;
403 -> 405 ;
406 [label="squared_error = -0.0\nsamples = 1\nvalue = 0.2"] ;
402 -> 406 ;
407 [label="squared_error = -0.0\nsamples = 1\nvalue = 0.4"] ;
389 -> 407 ;
408 [label="east_gps <= 619813.0\nsquared_error = 0.0\nsamples = 6\nvalue = 0.3"] ;
388 -> 408 ;
409 [label="lat_sigma <= 2.0\nsquared_error = 0.0\nsamples = 5\nvalue = 0.3"] ;
408 -> 409 ;
410 [label="alt_sigma <= 4.5\nsquared_error = 0.0\nsamples = 3\nvalue = 0.3"] ;
409 -> 410 ;
411 [label="yaw_ins <= 1.6\nsquared_error = 0.0\nsamples = 2\nvalue = 0.3"] ;
410 -> 411 ;
412 [label="squared_error = 0.0\nsamples = 1\nvalue = 0.3"] ;
411 -> 412 ;
413 [label="squared_error = 0.0\nsamples = 1\nvalue = 0.3"] ;
411 -> 413 ;
414 [label="squared_error = 0.0\nsamples = 1\nvalue = 0.2"] ;
410 -> 414 ;
415 [label="lon_sigma <= 1.6\nsquared_error = 0.0\nsamples = 2\nvalue = 0.3"] ;
409 -> 415 ;
416 [label="squared_error = 0.0\nsamples = 1\nvalue = 0.3"] ;
415 -> 416 ;
417 [label="squared_error = 0.0\nsamples = 1\nvalue = 0.3"] ;
415 -> 417 ;
418 [label="squared_error = 0.0\nsamples = 1\nvalue = 0.4"] ;
408 -> 418 ;
419 [label="pitch_ins <= -0.0\nsquared_error = 0.0\nsamples = 9\nvalue = 0.1"] ;
387 -> 419 ;
420 [label="down_gps <= -58.6\nsquared_error = 0.0\nsamples = 3\nvalue = 0.0"] ;
419 -> 420 ;
421 [label="squared_error = 0.0\nsamples = 2\nvalue = 0.0"] ;
420 -> 421 ;
422 [label="squared_error = -0.0\nsamples = 1\nvalue = 0.0"] ;
420 -> 422 ;
423 [label="down_gps <= -58.7\nsquared_error = 0.0\nsamples = 6\nvalue = 0.1"] ;
419 -> 423 ;
424 [label="squared_error = 0.0\nsamples = 1\nvalue = 0.1"] ;
423 -> 424 ;
425 [label="vel_down_ins <= -0.0\nsquared_error = 0.0\nsamples = 5\nvalue = 0.1"] ;
423 -> 425 ;
426 [label="num_sat <= 7.5\nsquared_error = 0.0\nsamples = 3\nvalue = 0.1"] ;
425 -> 426 ;
427 [label="lon_sigma <= 2.0\nsquared_error = 0.0\nsamples = 2\nvalue = 0.1"] ;
426 -> 427 ;
428 [label="squared_error = 0.0\nsamples = 1\nvalue = 0.1"] ;
427 -> 428 ;
429 [label="squared_error = -0.0\nsamples = 1\nvalue = 0.1"] ;
427 -> 429 ;
430 [label="squared_error = -0.0\nsamples = 1\nvalue = 0.1"] ;
426 -> 430 ;
431 [label="east_gps <= 619812.7\nsquared_error = 0.0\nsamples = 2\nvalue = 0.1"] ;
425 -> 431 ;
432 [label="squared_error = 0.0\nsamples = 1\nvalue = 0.1"] ;
431 -> 432 ;
433 [label="squared_error = -0.0\nsamples = 1\nvalue = 0.1"] ;
431 -> 433 ;
434 [label="down_gps <= -60.9\nsquared_error = 0.1\nsamples = 9\nvalue = 1.0"] ;
376 -> 434 ;
435 [label="squared_error = 0.0\nsamples = 1\nvalue = 1.7"] ;
434 -> 435 ;
436 [label="east_gps <= 619813.3\nsquared_error = 0.0\nsamples = 8\nvalue = 0.9"] ;
434 -> 436 ;
437 [label="east_gps <= 619813.2\nsquared_error = 0.0\nsamples = 5\nvalue = 0.8"] ;
436 -> 437 ;
438 [label="lat_sigma <= 2.0\nsquared_error = 0.0\nsamples = 2\nvalue = 0.7"] ;
437 -> 438 ;
439 [label="squared_error = 0.0\nsamples = 1\nvalue = 0.7"] ;
438 -> 439 ;
440 [label="squared_error = 0.0\nsamples = 1\nvalue = 0.7"] ;
438 -> 440 ;
441 [label="down_gps <= -60.0\nsquared_error = 0.0\nsamples = 3\nvalue = 0.9"] ;
437 -> 441 ;
442 [label="squared_error = 0.0\nsamples = 1\nvalue = 0.9"] ;
441 -> 442 ;
443 [label="yaw_ins <= 1.6\nsquared_error = 0.0\nsamples = 2\nvalue = 0.9"] ;
441 -> 443 ;
444 [label="squared_error = 0.0\nsamples = 1\nvalue = 0.9"] ;
443 -> 444 ;
445 [label="squared_error = 0.0\nsamples = 1\nvalue = 0.8"] ;
443 -> 445 ;
446 [label="north_gps <= 5734970.8\nsquared_error = 0.0\nsamples = 3\nvalue = 1.1"] ;
436 -> 446 ;
447 [label="squared_error = 0.0\nsamples = 1\nvalue = 1.2"] ;
446 -> 447 ;
448 [label="yaw_ins <= 1.6\nsquared_error = 0.0\nsamples = 2\nvalue = 1.1"] ;
446 -> 448 ;
449 [label="squared_error = 0.0\nsamples = 1\nvalue = 1.1"] ;
448 -> 449 ;
450 [label="squared_error = 0.0\nsamples = 1\nvalue = 1.1"] ;
448 -> 450 ;
451 [label="vel_east_ins <= 0.0\nsquared_error = 0.0\nsamples = 66\nvalue = 0.8"] ;
375 -> 451 ;
452 [label="roll_ins <= 0.0\nsquared_error = 0.0\nsamples = 56\nvalue = 0.7"] ;
451 -> 452 ;
453 [label="lon_sigma <= 1.6\nsquared_error = 0.0\nsamples = 53\nvalue = 0.7"] ;
452 -> 453 ;
454 [label="down_gps <= -58.1\nsquared_error = 0.0\nsamples = 45\nvalue = 0.7"] ;
453 -> 454 ;
455 [label="lat_sigma <= 2.1\nsquared_error = 0.0\nsamples = 17\nvalue = 0.7"] ;
454 -> 455 ;
456 [label="roll_ins <= -0.0\nsquared_error = 0.0\nsamples = 8\nvalue = 0.6"] ;
455 -> 456 ;
457 [label="lat_sigma <= 2.1\nsquared_error = 0.0\nsamples = 6\nvalue = 0.6"] ;
456 -> 457 ;
458 [label="lon_sigma <= 1.6\nsquared_error = 0.0\nsamples = 5\nvalue = 0.6"] ;
457 -> 458 ;
459 [label="squared_error = 0.0\nsamples = 3\nvalue = 0.6"] ;
458 -> 459 ;
460 [label="squared_error = -0.0\nsamples = 2\nvalue = 0.6"] ;
458 -> 460 ;
461 [label="squared_error = -0.0\nsamples = 1\nvalue = 0.6"] ;
457 -> 461 ;
462 [label="squared_error = 0.0\nsamples = 2\nvalue = 0.7"] ;
456 -> 462 ;
463 [label="yaw_ins <= 1.3\nsquared_error = 0.0\nsamples = 9\nvalue = 0.7"] ;
455 -> 463 ;
464 [label="squared_error = 0.0\nsamples = 1\nvalue = 0.7"] ;
463 -> 464 ;
465 [label="lon_sigma <= 1.6\nsquared_error = 0.0\nsamples = 8\nvalue = 0.7"] ;
463 -> 465 ;
466 [label="squared_error = 0.0\nsamples = 5\nvalue = 0.7"] ;
465 -> 466 ;
467 [label="squared_error = -0.0\nsamples = 3\nvalue = 0.7"] ;
465 -> 467 ;
468 [label="roll_ins <= -0.0\nsquared_error = 0.0\nsamples = 28\nvalue = 0.8"] ;
454 -> 468 ;
469 [label="vel_down_ins <= -0.0\nsquared_error = 0.0\nsamples = 25\nvalue = 0.7"] ;
468 -> 469 ;
470 [label="alt_gps <= 57.6\nsquared_error = 0.0\nsamples = 5\nvalue = 0.7"] ;
469 -> 470 ;
471 [label="num_sat <= 7.5\nsquared_error = 0.0\nsamples = 2\nvalue = 0.7"] ;
470 -> 471 ;
472 [label="squared_error = 0.0\nsamples = 1\nvalue = 0.7"] ;
471 -> 472 ;
473 [label="squared_error = 0.0\nsamples = 1\nvalue = 0.7"] ;
471 -> 473 ;
474 [label="alt_sigma <= 4.3\nsquared_error = 0.0\nsamples = 3\nvalue = 0.7"] ;
470 -> 474 ;
475 [label="roll_ins <= -0.0\nsquared_error = 0.0\nsamples = 2\nvalue = 0.7"] ;
474 -> 475 ;
476 [label="squared_error = 0.0\nsamples = 1\nvalue = 0.7"] ;
475 -> 476 ;
477 [label="squared_error = 0.0\nsamples = 1\nvalue = 0.7"] ;
475 -> 477 ;
478 [label="squared_error = 0.0\nsamples = 1\nvalue = 0.7"] ;
474 -> 478 ;
479 [label="vel_north_ins <= 0.0\nsquared_error = 0.0\nsamples = 20\nvalue = 0.8"] ;
469 -> 479 ;
480 [label="roll_ins <= -0.0\nsquared_error = 0.0\nsamples = 12\nvalue = 0.8"] ;
479 -> 480 ;
481 [label="alt_gps <= 57.9\nsquared_error = 0.0\nsamples = 3\nvalue = 0.7"] ;
480 -> 481 ;
482 [label="alt_gps <= 57.8\nsquared_error = 0.0\nsamples = 2\nvalue = 0.7"] ;
481 -> 482 ;
483 [label="squared_error = 0.0\nsamples = 1\nvalue = 0.7"] ;
482 -> 483 ;
484 [label="squared_error = 0.0\nsamples = 1\nvalue = 0.7"] ;
482 -> 484 ;
485 [label="squared_error = 0.0\nsamples = 1\nvalue = 0.7"] ;
481 -> 485 ;
486 [label="vel_down_ins <= -0.0\nsquared_error = 0.0\nsamples = 9\nvalue = 0.8"] ;
480 -> 486 ;
487 [label="vel_north_ins <= 0.0\nsquared_error = 0.0\nsamples = 3\nvalue = 0.8"] ;
486 -> 487 ;
488 [label="squared_error = 0.0\nsamples = 1\nvalue = 0.8"] ;
487 -> 488 ;
489 [label="roll_ins <= -0.0\nsquared_error = 0.0\nsamples = 2\nvalue = 0.8"] ;
487 -> 489 ;
490 [label="squared_error = 0.0\nsamples = 1\nvalue = 0.8"] ;
489 -> 490 ;
491 [label="squared_error = 0.0\nsamples = 1\nvalue = 0.8"] ;
489 -> 491 ;
492 [label="alt_sigma <= 4.2\nsquared_error = 0.0\nsamples = 6\nvalue = 0.8"] ;
486 -> 492 ;
493 [label="alt_gps <= 57.9\nsquared_error = 0.0\nsamples = 2\nvalue = 0.8"] ;
492 -> 493 ;
494 [label="squared_error = 0.0\nsamples = 1\nvalue = 0.8"] ;
493 -> 494 ;
495 [label="squared_error = 0.0\nsamples = 1\nvalue = 0.8"] ;
493 -> 495 ;
496 [label="yaw_ins <= 1.3\nsquared_error = 0.0\nsamples = 4\nvalue = 0.7"] ;
492 -> 496 ;
497 [label="squared_error = 0.0\nsamples = 2\nvalue = 0.8"] ;
496 -> 497 ;
498 [label="yaw_ins <= 1.3\nsquared_error = 0.0\nsamples = 2\nvalue = 0.7"] ;
496 -> 498 ;
499 [label="squared_error = 0.0\nsamples = 1\nvalue = 0.7"] ;
498 -> 499 ;
500 [label="squared_error = -0.0\nsamples = 1\nvalue = 0.7"] ;
498 -> 500 ;
501 [label="lon_gps <= -1.3\nsquared_error = 0.0\nsamples = 8\nvalue = 0.7"] ;
479 -> 501 ;
502 [label="alt_gps <= 57.8\nsquared_error = 0.0\nsamples = 4\nvalue = 0.7"] ;
501 -> 502 ;
503 [label="squared_error = 0.0\nsamples = 1\nvalue = 0.7"] ;
502 -> 503 ;
504 [label="roll_ins <= -0.0\nsquared_error = 0.0\nsamples = 3\nvalue = 0.7"] ;
502 -> 504 ;
505 [label="squared_error = 0.0\nsamples = 1\nvalue = 0.7"] ;
504 -> 505 ;
506 [label="squared_error = 0.0\nsamples = 2\nvalue = 0.7"] ;
504 -> 506 ;
507 [label="vel_east_ins <= -0.0\nsquared_error = 0.0\nsamples = 4\nvalue = 0.7"] ;
501 -> 507 ;
508 [label="squared_error = 0.0\nsamples = 2\nvalue = 0.7"] ;
507 -> 508 ;
509 [label="squared_error = 0.0\nsamples = 2\nvalue = 0.7"] ;
507 -> 509 ;
510 [label="vel_north_ins <= 0.0\nsquared_error = 0.0\nsamples = 3\nvalue = 0.9"] ;
468 -> 510 ;
511 [label="squared_error = 0.0\nsamples = 2\nvalue = 0.9"] ;
510 -> 511 ;
512 [label="squared_error = 0.0\nsamples = 1\nvalue = 0.9"] ;
510 -> 512 ;
513 [label="vel_north_ins <= -0.6\nsquared_error = 0.0\nsamples = 8\nvalue = 0.6"] ;
453 -> 513 ;
514 [label="squared_error = 0.0\nsamples = 1\nvalue = 0.4"] ;
513 -> 514 ;
515 [label="roll_ins <= -0.0\nsquared_error = 0.0\nsamples = 7\nvalue = 0.6"] ;
513 -> 515 ;
516 [label="lon_gps <= -1.3\nsquared_error = 0.0\nsamples = 2\nvalue = 0.5"] ;
515 -> 516 ;
517 [label="squared_error = 0.0\nsamples = 1\nvalue = 0.6"] ;
516 -> 517 ;
518 [label="squared_error = -0.0\nsamples = 1\nvalue = 0.5"] ;
516 -> 518 ;
519 [label="yaw_ins <= 3.2\nsquared_error = 0.0\nsamples = 5\nvalue = 0.6"] ;
515 -> 519 ;
520 [label="alt_sigma <= 7.9\nsquared_error = 0.0\nsamples = 3\nvalue = 0.6"] ;
519 -> 520 ;
521 [label="alt_sigma <= 6.1\nsquared_error = 0.0\nsamples = 2\nvalue = 0.6"] ;
520 -> 521 ;
522 [label="squared_error = 0.0\nsamples = 1\nvalue = 0.6"] ;
521 -> 522 ;
523 [label="squared_error = -0.0\nsamples = 1\nvalue = 0.6"] ;
521 -> 523 ;
524 [label="squared_error = 0.0\nsamples = 1\nvalue = 0.6"] ;
520 -> 524 ;
525 [label="down_gps <= -65.1\nsquared_error = 0.0\nsamples = 2\nvalue = 0.7"] ;
519 -> 525 ;
526 [label="squared_error = 0.0\nsamples = 1\nvalue = 0.7"] ;
525 -> 526 ;
527 [label="squared_error = 0.0\nsamples = 1\nvalue = 0.7"] ;
525 -> 527 ;
528 [label="north_gps <= 5735209.2\nsquared_error = 0.0\nsamples = 3\nvalue = 1.1"] ;
452 -> 528 ;
529 [label="squared_error = 0.0\nsamples = 1\nvalue = 0.9"] ;
528 -> 529 ;
530 [label="pitch_ins <= -0.0\nsquared_error = 0.0\nsamples = 2\nvalue = 1.3"] ;
528 -> 530 ;
531 [label="squared_error = 0.0\nsamples = 1\nvalue = 1.3"] ;
530 -> 531 ;
532 [label="squared_error = 0.0\nsamples = 1\nvalue = 1.4"] ;
530 -> 532 ;
533 [label="yaw_ins <= 1.3\nsquared_error = 0.0\nsamples = 10\nvalue = 1.0"] ;
451 -> 533 ;
534 [label="squared_error = 0.0\nsamples = 1\nvalue = 1.1"] ;
533 -> 534 ;
535 [label="alt_sigma <= 4.2\nsquared_error = 0.0\nsamples = 9\nvalue = 1.0"] ;
533 -> 535 ;
536 [label="squared_error = 0.0\nsamples = 1\nvalue = 1.0"] ;
535 -> 536 ;
537 [label="vel_down_ins <= -0.0\nsquared_error = 0.0\nsamples = 8\nvalue = 1.0"] ;
535 -> 537 ;
538 [label="alt_gps <= 57.3\nsquared_error = 0.0\nsamples = 3\nvalue = 1.0"] ;
537 -> 538 ;
539 [label="squared_error = 0.0\nsamples = 1\nvalue = 1.0"] ;
538 -> 539 ;
540 [label="alt_sigma <= 4.2\nsquared_error = 0.0\nsamples = 2\nvalue = 1.0"] ;
538 -> 540 ;
541 [label="squared_error = 0.0\nsamples = 1\nvalue = 1.0"] ;
540 -> 541 ;
542 [label="squared_error = 0.0\nsamples = 1\nvalue = 1.0"] ;
540 -> 542 ;
543 [label="down_gps <= -57.4\nsquared_error = 0.0\nsamples = 5\nvalue = 1.0"] ;
537 -> 543 ;
544 [label="alt_gps <= 57.6\nsquared_error = 0.0\nsamples = 4\nvalue = 1.0"] ;
543 -> 544 ;
545 [label="vel_down_ins <= -0.0\nsquared_error = 0.0\nsamples = 3\nvalue = 1.0"] ;
544 -> 545 ;
546 [label="lon_sigma <= 1.6\nsquared_error = 0.0\nsamples = 2\nvalue = 1.0"] ;
545 -> 546 ;
547 [label="squared_error = 0.0\nsamples = 1\nvalue = 1.0"] ;
546 -> 547 ;
548 [label="squared_error = -0.0\nsamples = 1\nvalue = 1.0"] ;
546 -> 548 ;
549 [label="squared_error = 0.0\nsamples = 1\nvalue = 1.0"] ;
545 -> 549 ;
550 [label="squared_error = 0.0\nsamples = 1\nvalue = 1.0"] ;
544 -> 550 ;
551 [label="squared_error = -0.0\nsamples = 1\nvalue = 1.0"] ;
543 -> 551 ;
552 [label="vel_east_ins <= 0.3\nsquared_error = 0.3\nsamples = 182\nvalue = 1.2"] ;
338 -> 552 ;
553 [label="squared_error = 0.0\nsamples = 1\nvalue = 4.5"] ;
552 -> 553 ;
554 [label="vel_down_ins <= -0.1\nsquared_error = 0.3\nsamples = 181\nvalue = 1.2"] ;
552 -> 554 ;
555 [label="lat_sigma <= 2.1\nsquared_error = 0.2\nsamples = 24\nvalue = 1.7"] ;
554 -> 555 ;
556 [label="yaw_ins <= 2.2\nsquared_error = 0.2\nsamples = 7\nvalue = 2.1"] ;
555 -> 556 ;
557 [label="lon_sigma <= 1.7\nsquared_error = 0.1\nsamples = 6\nvalue = 2.0"] ;
556 -> 557 ;
558 [label="yaw_ins <= 2.1\nsquared_error = 0.0\nsamples = 4\nvalue = 2.1"] ;
557 -> 558 ;
559 [label="alt_gps <= 58.2\nsquared_error = 0.0\nsamples = 3\nvalue = 2.1"] ;
558 -> 559 ;
560 [label="squared_error = 0.0\nsamples = 1\nvalue = 2.1"] ;
559 -> 560 ;
561 [label="vel_east_ins <= 4.4\nsquared_error = 0.0\nsamples = 2\nvalue = 2.0"] ;
559 -> 561 ;
562 [label="squared_error = 0.0\nsamples = 1\nvalue = 2.0"] ;
561 -> 562 ;
563 [label="squared_error = 0.0\nsamples = 1\nvalue = 2.0"] ;
561 -> 563 ;
564 [label="squared_error = -0.0\nsamples = 1\nvalue = 2.3"] ;
558 -> 564 ;
565 [label="alt_gps <= 59.1\nsquared_error = 0.0\nsamples = 2\nvalue = 1.7"] ;
557 -> 565 ;
566 [label="squared_error = 0.0\nsamples = 1\nvalue = 1.9"] ;
565 -> 566 ;
567 [label="squared_error = 0.0\nsamples = 1\nvalue = 1.5"] ;
565 -> 567 ;
568 [label="squared_error = -0.0\nsamples = 1\nvalue = 3.1"] ;
556 -> 568 ;
569 [label="alt_gps <= 57.7\nsquared_error = 0.1\nsamples = 17\nvalue = 1.5"] ;
555 -> 569 ;
570 [label="vel_east_ins <= 3.0\nsquared_error = 0.0\nsamples = 10\nvalue = 1.7"] ;
569 -> 570 ;
571 [label="yaw_ins <= 1.3\nsquared_error = 0.0\nsamples = 4\nvalue = 1.5"] ;
570 -> 571 ;
572 [label="squared_error = 0.0\nsamples = 1\nvalue = 1.7"] ;
571 -> 572 ;
573 [label="vel_down_ins <= -0.1\nsquared_error = 0.0\nsamples = 3\nvalue = 1.4"] ;
571 -> 573 ;
574 [label="squared_error = 0.0\nsamples = 1\nvalue = 1.3"] ;
573 -> 574 ;
575 [label="lon_gps <= -1.3\nsquared_error = 0.0\nsamples = 2\nvalue = 1.5"] ;
573 -> 575 ;
576 [label="squared_error = 0.0\nsamples = 1\nvalue = 1.5"] ;
575 -> 576 ;
577 [label="squared_error = -0.0\nsamples = 1\nvalue = 1.5"] ;
575 -> 577 ;
578 [label="roll_ins <= -0.0\nsquared_error = 0.0\nsamples = 6\nvalue = 1.8"] ;
570 -> 578 ;
579 [label="squared_error = 0.0\nsamples = 1\nvalue = 1.7"] ;
578 -> 579 ;
580 [label="yaw_ins <= 1.3\nsquared_error = 0.0\nsamples = 5\nvalue = 1.8"] ;
578 -> 580 ;
581 [label="lon_sigma <= 1.6\nsquared_error = 0.0\nsamples = 2\nvalue = 1.8"] ;
580 -> 581 ;
582 [label="squared_error = 0.0\nsamples = 1\nvalue = 1.8"] ;
581 -> 582 ;
583 [label="squared_error = -0.0\nsamples = 1\nvalue = 1.8"] ;
581 -> 583 ;
584 [label="alt_gps <= 57.5\nsquared_error = 0.0\nsamples = 3\nvalue = 1.8"] ;
580 -> 584 ;
585 [label="num_sat <= 8.0\nsquared_error = 0.0\nsamples = 2\nvalue = 1.8"] ;
584 -> 585 ;
586 [label="squared_error = 0.0\nsamples = 1\nvalue = 1.8"] ;
585 -> 586 ;
587 [label="squared_error = 0.0\nsamples = 1\nvalue = 1.8"] ;
585 -> 587 ;
588 [label="squared_error = 0.0\nsamples = 1\nvalue = 1.9"] ;
584 -> 588 ;
589 [label="yaw_ins <= 1.3\nsquared_error = 0.0\nsamples = 7\nvalue = 1.2"] ;
569 -> 589 ;
590 [label="squared_error = 0.0\nsamples = 1\nvalue = 1.8"] ;
589 -> 590 ;
591 [label="vel_north_ins <= 0.9\nsquared_error = 0.0\nsamples = 6\nvalue = 1.2"] ;
589 -> 591 ;
592 [label="vel_east_ins <= 2.2\nsquared_error = 0.0\nsamples = 2\nvalue = 1.0"] ;
591 -> 592 ;
593 [label="squared_error = 0.0\nsamples = 1\nvalue = 0.9"] ;
592 -> 593 ;
594 [label="squared_error = -0.0\nsamples = 1\nvalue = 1.0"] ;
592 -> 594 ;
595 [label="lat_gps <= 51.8\nsquared_error = 0.0\nsamples = 4\nvalue = 1.2"] ;
591 -> 595 ;
596 [label="east_gps <= 619731.1\nsquared_error = 0.0\nsamples = 2\nvalue = 1.2"] ;
595 -> 596 ;
597 [label="squared_error = 0.0\nsamples = 1\nvalue = 1.2"] ;
596 -> 597 ;
598 [label="squared_error = -0.0\nsamples = 1\nvalue = 1.2"] ;
596 -> 598 ;
599 [label="alt_sigma <= 4.3\nsquared_error = 0.0\nsamples = 2\nvalue = 1.3"] ;
595 -> 599 ;
600 [label="squared_error = 0.0\nsamples = 1\nvalue = 1.3"] ;
599 -> 600 ;
601 [label="squared_error = 0.0\nsamples = 1\nvalue = 1.3"] ;
599 -> 601 ;
602 [label="down_gps <= -57.0\nsquared_error = 0.2\nsamples = 157\nvalue = 1.2"] ;
554 -> 602 ;
603 [label="roll_ins <= 0.0\nsquared_error = 0.2\nsamples = 115\nvalue = 1.0"] ;
602 -> 603 ;
604 [label="lat_sigma <= 3.3\nsquared_error = 0.2\nsamples = 101\nvalue = 1.1"] ;
603 -> 604 ;
605 [label="lat_gps <= 51.8\nsquared_error = 0.2\nsamples = 96\nvalue = 1.1"] ;
604 -> 605 ;
606 [label="vel_east_ins <= 2.8\nsquared_error = 0.1\nsamples = 39\nvalue = 0.9"] ;
605 -> 606 ;
607 [label="vel_north_ins <= 0.0\nsquared_error = 0.1\nsamples = 12\nvalue = 0.7"] ;
606 -> 607 ;
608 [label="alt_gps <= 57.5\nsquared_error = 0.0\nsamples = 10\nvalue = 0.8"] ;
607 -> 608 ;
609 [label="vel_east_ins <= 1.6\nsquared_error = 0.0\nsamples = 2\nvalue = 0.5"] ;
608 -> 609 ;
610 [label="squared_error = 0.0\nsamples = 1\nvalue = 0.5"] ;
609 -> 610 ;
611 [label="squared_error = 0.0\nsamples = 1\nvalue = 0.4"] ;
609 -> 611 ;
612 [label="east_gps <= 619923.9\nsquared_error = 0.0\nsamples = 8\nvalue = 0.8"] ;
608 -> 612 ;
613 [label="vel_north_ins <= 0.0\nsquared_error = 0.0\nsamples = 6\nvalue = 0.8"] ;
612 -> 613 ;
614 [label="lon_sigma <= 1.6\nsquared_error = 0.0\nsamples = 4\nvalue = 0.8"] ;
613 -> 614 ;
615 [label="squared_error = 0.0\nsamples = 1\nvalue = 0.8"] ;
614 -> 615 ;
616 [label="vel_down_ins <= -0.0\nsquared_error = 0.0\nsamples = 3\nvalue = 0.8"] ;
614 -> 616 ;
617 [label="squared_error = 0.0\nsamples = 1\nvalue = 0.8"] ;
616 -> 617 ;
618 [label="down_gps <= -60.0\nsquared_error = 0.0\nsamples = 2\nvalue = 0.9"] ;
616 -> 618 ;
619 [label="squared_error = 0.0\nsamples = 1\nvalue = 0.8"] ;
618 -> 619 ;
620 [label="squared_error = -0.0\nsamples = 1\nvalue = 0.9"] ;
618 -> 620 ;
621 [label="lon_gps <= -1.3\nsquared_error = 0.0\nsamples = 2\nvalue = 0.8"] ;
613 -> 621 ;
622 [label="squared_error = 0.0\nsamples = 1\nvalue = 0.8"] ;
621 -> 622 ;
623 [label="squared_error = 0.0\nsamples = 1\nvalue = 0.8"] ;
621 -> 623 ;
624 [label="lon_gps <= -1.3\nsquared_error = 0.0\nsamples = 2\nvalue = 1.0"] ;
612 -> 624 ;
625 [label="squared_error = 0.0\nsamples = 1\nvalue = 0.9"] ;
624 -> 625 ;
626 [label="squared_error = 0.0\nsamples = 1\nvalue = 1.0"] ;
624 -> 626 ;
627 [label="alt_sigma <= 5.3\nsquared_error = 0.0\nsamples = 2\nvalue = 0.2"] ;
607 -> 627 ;
628 [label="squared_error = 0.0\nsamples = 1\nvalue = 0.3"] ;
627 -> 628 ;
629 [label="squared_error = 0.0\nsamples = 1\nvalue = 0.1"] ;
627 -> 629 ;
630 [label="lat_sigma <= 2.5\nsquared_error = 0.1\nsamples = 27\nvalue = 1.0"] ;
606 -> 630 ;
631 [label="vel_east_ins <= 4.2\nsquared_error = 0.0\nsamples = 16\nvalue = 1.1"] ;
630 -> 631 ;
632 [label="down_gps <= -57.1\nsquared_error = 0.0\nsamples = 14\nvalue = 1.1"] ;
631 -> 632 ;
633 [label="yaw_ins <= 2.2\nsquared_error = 0.0\nsamples = 13\nvalue = 1.1"] ;
632 -> 633 ;
634 [label="vel_down_ins <= -0.1\nsquared_error = 0.0\nsamples = 12\nvalue = 1.1"] ;
633 -> 634 ;
635 [label="north_gps <= 5734943.5\nsquared_error = 0.0\nsamples = 2\nvalue = 1.2"] ;
634 -> 635 ;
636 [label="squared_error = 0.0\nsamples = 1\nvalue = 1.3"] ;
635 -> 636 ;
637 [label="squared_error = 0.0\nsamples = 1\nvalue = 1.2"] ;
635 -> 637 ;
638 [label="vel_north_ins <= -0.0\nsquared_error = 0.0\nsamples = 10\nvalue = 1.1"] ;
634 -> 638 ;
639 [label="alt_sigma <= 6.1\nsquared_error = 0.0\nsamples = 8\nvalue = 1.0"] ;
638 -> 639 ;
640 [label="alt_sigma <= 4.9\nsquared_error = 0.0\nsamples = 7\nvalue = 1.1"] ;
639 -> 640 ;
641 [label="squared_error = 0.0\nsamples = 1\nvalue = 1.2"] ;
640 -> 641 ;
642 [label="vel_down_ins <= -0.0\nsquared_error = 0.0\nsamples = 6\nvalue = 1.0"] ;
640 -> 642 ;
643 [label="vel_north_ins <= -1.2\nsquared_error = 0.0\nsamples = 2\nvalue = 1.1"] ;
642 -> 643 ;
644 [label="squared_error = 0.0\nsamples = 1\nvalue = 1.1"] ;
643 -> 644 ;
645 [label="squared_error = 0.0\nsamples = 1\nvalue = 1.1"] ;
643 -> 645 ;
646 [label="vel_east_ins <= 3.1\nsquared_error = 0.0\nsamples = 4\nvalue = 1.0"] ;
642 -> 646 ;
647 [label="squared_error = 0.0\nsamples = 1\nvalue = 1.0"] ;
646 -> 647 ;
648 [label="down_gps <= -59.7\nsquared_error = 0.0\nsamples = 3\nvalue = 1.0"] ;
646 -> 648 ;
649 [label="squared_error = 0.0\nsamples = 1\nvalue = 1.0"] ;
648 -> 649 ;
650 [label="roll_ins <= 0.0\nsquared_error = 0.0\nsamples = 2\nvalue = 1.0"] ;
648 -> 650 ;
651 [label="squared_error = 0.0\nsamples = 1\nvalue = 1.0"] ;
650 -> 651 ;
652 [label="squared_error = 0.0\nsamples = 1\nvalue = 1.0"] ;
650 -> 652 ;
653 [label="squared_error = 0.0\nsamples = 1\nvalue = 0.9"] ;
639 -> 653 ;
654 [label="vel_down_ins <= 0.0\nsquared_error = 0.0\nsamples = 2\nvalue = 1.2"] ;
638 -> 654 ;
655 [label="squared_error = 0.0\nsamples = 1\nvalue = 1.2"] ;
654 -> 655 ;
656 [label="squared_error = -0.0\nsamples = 1\nvalue = 1.2"] ;
654 -> 656 ;
657 [label="squared_error = 0.0\nsamples = 1\nvalue = 0.8"] ;
633 -> 657 ;
658 [label="squared_error = -0.0\nsamples = 1\nvalue = 1.3"] ;
632 -> 658 ;
659 [label="pitch_ins <= 0.0\nsquared_error = 0.0\nsamples = 2\nvalue = 1.6"] ;
631 -> 659 ;
660 [label="squared_error = 0.0\nsamples = 1\nvalue = 1.6"] ;
659 -> 660 ;
661 [label="squared_error = -0.0\nsamples = 1\nvalue = 1.7"] ;
659 -> 661 ;
662 [label="vel_down_ins <= 0.0\nsquared_error = 0.0\nsamples = 11\nvalue = 0.9"] ;
630 -> 662 ;
663 [label="pitch_ins <= -0.0\nsquared_error = 0.0\nsamples = 6\nvalue = 0.8"] ;
662 -> 663 ;
664 [label="vel_east_ins <= 4.3\nsquared_error = 0.0\nsamples = 2\nvalue = 0.5"] ;
663 -> 664 ;
665 [label="squared_error = 0.0\nsamples = 1\nvalue = 0.5"] ;
664 -> 665 ;
666 [label="squared_error = 0.0\nsamples = 1\nvalue = 0.5"] ;
664 -> 666 ;
667 [label="east_gps <= 619606.8\nsquared_error = 0.0\nsamples = 4\nvalue = 0.8"] ;
663 -> 667 ;
668 [label="squared_error = 0.0\nsamples = 1\nvalue = 1.1"] ;
667 -> 668 ;
669 [label="roll_ins <= -0.0\nsquared_error = 0.0\nsamples = 3\nvalue = 0.8"] ;
667 -> 669 ;
670 [label="east_gps <= 619643.1\nsquared_error = 0.0\nsamples = 2\nvalue = 0.9"] ;
669 -> 670 ;
671 [label="squared_error = 0.0\nsamples = 1\nvalue = 0.9"] ;
670 -> 671 ;
672 [label="squared_error = 0.0\nsamples = 1\nvalue = 0.8"] ;
670 -> 672 ;
673 [label="squared_error = -0.0\nsamples = 1\nvalue = 0.7"] ;
669 -> 673 ;
674 [label="vel_east_ins <= 4.3\nsquared_error = 0.0\nsamples = 5\nvalue = 1.1"] ;
662 -> 674 ;
675 [label="vel_east_ins <= 4.3\nsquared_error = 0.0\nsamples = 2\nvalue = 0.9"] ;
674 -> 675 ;
676 [label="squared_error = 0.0\nsamples = 1\nvalue = 0.8"] ;
675 -> 676 ;
677 [label="squared_error = -0.0\nsamples = 1\nvalue = 0.9"] ;
675 -> 677 ;
678 [label="vel_down_ins <= 0.1\nsquared_error = 0.0\nsamples = 3\nvalue = 1.3"] ;
674 -> 678 ;
679 [label="squared_error = 0.0\nsamples = 1\nvalue = 1.2"] ;
678 -> 679 ;
680 [label="east_gps <= 619622.4\nsquared_error = 0.0\nsamples = 2\nvalue = 1.3"] ;
678 -> 680 ;
681 [label="squared_error = 0.0\nsamples = 1\nvalue = 1.3"] ;
680 -> 681 ;
682 [label="squared_error = 0.0\nsamples = 1\nvalue = 1.3"] ;
680 -> 682 ;
683 [label="vel_north_ins <= 0.1\nsquared_error = 0.3\nsamples = 57\nvalue = 1.2"] ;
605 -> 683 ;
684 [label="vel_down_ins <= -0.0\nsquared_error = 1.8\nsamples = 4\nvalue = 2.1"] ;
683 -> 684 ;
685 [label="north_gps <= 5735008.5\nsquared_error = 0.4\nsamples = 3\nvalue = 1.5"] ;
684 -> 685 ;
686 [label="squared_error = 0.0\nsamples = 1\nvalue = 2.3"] ;
685 -> 686 ;
687 [label="lon_sigma <= 1.6\nsquared_error = 0.0\nsamples = 2\nvalue = 1.0"] ;
685 -> 687 ;
688 [label="squared_error = 0.0\nsamples = 1\nvalue = 1.1"] ;
687 -> 688 ;
689 [label="squared_error = 0.0\nsamples = 1\nvalue = 1.0"] ;
687 -> 689 ;
690 [label="squared_error = 0.0\nsamples = 1\nvalue = 4.8"] ;
684 -> 690 ;
691 [label="down_gps <= -57.7\nsquared_error = 0.1\nsamples = 53\nvalue = 1.1"] ;
683 -> 691 ;
692 [label="north_gps <= 5735391.2\nsquared_error = 0.1\nsamples = 24\nvalue = 0.9"] ;
691 -> 692 ;
693 [label="vel_down_ins <= -0.0\nsquared_error = 0.0\nsamples = 21\nvalue = 0.9"] ;
692 -> 693 ;
694 [label="pitch_ins <= 0.0\nsquared_error = 0.0\nsamples = 18\nvalue = 0.9"] ;
693 -> 694 ;
695 [label="down_gps <= -57.8\nsquared_error = 0.0\nsamples = 13\nvalue = 0.9"] ;
694 -> 695 ;
696 [label="lon_gps <= -1.3\nsquared_error = 0.0\nsamples = 8\nvalue = 0.8"] ;
695 -> 696 ;
697 [label="roll_ins <= -0.0\nsquared_error = 0.0\nsamples = 6\nvalue = 0.9"] ;
696 -> 697 ;
698 [label="squared_error = 0.0\nsamples = 1\nvalue = 0.8"] ;
697 -> 698 ;
699 [label="pitch_ins <= 0.0\nsquared_error = 0.0\nsamples = 5\nvalue = 0.9"] ;
697 -> 699 ;
700 [label="vel_east_ins <= 2.7\nsquared_error = 0.0\nsamples = 2\nvalue = 0.9"] ;
699 -> 700 ;
701 [label="squared_error = 0.0\nsamples = 1\nvalue = 0.9"] ;
700 -> 701 ;
702 [label="squared_error = 0.0\nsamples = 1\nvalue = 0.9"] ;
700 -> 702 ;
703 [label="lon_sigma <= 1.6\nsquared_error = 0.0\nsamples = 3\nvalue = 0.9"] ;
699 -> 703 ;
704 [label="squared_error = 0.0\nsamples = 1\nvalue = 0.9"] ;
703 -> 704 ;
705 [label="roll_ins <= 0.0\nsquared_error = 0.0\nsamples = 2\nvalue = 0.9"] ;
703 -> 705 ;
706 [label="squared_error = 0.0\nsamples = 1\nvalue = 0.9"] ;
705 -> 706 ;
707 [label="squared_error = -0.0\nsamples = 1\nvalue = 0.9"] ;
705 -> 707 ;
708 [label="alt_sigma <= 4.4\nsquared_error = 0.0\nsamples = 2\nvalue = 0.8"] ;
696 -> 708 ;
709 [label="squared_error = 0.0\nsamples = 1\nvalue = 0.8"] ;
708 -> 709 ;
710 [label="squared_error = -0.0\nsamples = 1\nvalue = 0.8"] ;
708 -> 710 ;
711 [label="east_gps <= 619749.5\nsquared_error = 0.0\nsamples = 5\nvalue = 0.9"] ;
695 -> 711 ;
712 [label="alt_gps <= 57.7\nsquared_error = 0.0\nsamples = 2\nvalue = 0.8"] ;
711 -> 712 ;
713 [label="squared_error = 0.0\nsamples = 1\nvalue = 0.8"] ;
712 -> 713 ;
714 [label="squared_error = -0.0\nsamples = 1\nvalue = 0.9"] ;
712 -> 714 ;
715 [label="vel_east_ins <= 0.8\nsquared_error = 0.0\nsamples = 3\nvalue = 1.0"] ;
711 -> 715 ;
716 [label="alt_gps <= 57.7\nsquared_error = 0.0\nsamples = 2\nvalue = 1.0"] ;
715 -> 716 ;
717 [label="squared_error = 0.0\nsamples = 1\nvalue = 1.0"] ;
716 -> 717 ;
718 [label="squared_error = -0.0\nsamples = 1\nvalue = 1.0"] ;
716 -> 718 ;
719 [label="squared_error = -0.0\nsamples = 1\nvalue = 0.9"] ;
715 -> 719 ;
720 [label="roll_ins <= -0.0\nsquared_error = 0.0\nsamples = 5\nvalue = 1.1"] ;
694 -> 720 ;
721 [label="alt_sigma <= 4.3\nsquared_error = 0.0\nsamples = 4\nvalue = 1.1"] ;
720 -> 721 ;
722 [label="pitch_ins <= 0.0\nsquared_error = 0.0\nsamples = 3\nvalue = 1.1"] ;
721 -> 722 ;
723 [label="squared_error = 0.0\nsamples = 1\nvalue = 1.1"] ;
722 -> 723 ;
724 [label="vel_east_ins <= 1.2\nsquared_error = 0.0\nsamples = 2\nvalue = 1.0"] ;
722 -> 724 ;
725 [label="squared_error = 0.0\nsamples = 1\nvalue = 1.0"] ;
724 -> 725 ;
726 [label="squared_error = 0.0\nsamples = 1\nvalue = 1.0"] ;
724 -> 726 ;
727 [label="squared_error = -0.0\nsamples = 1\nvalue = 1.2"] ;
721 -> 727 ;
728 [label="squared_error = 0.0\nsamples = 1\nvalue = 0.9"] ;
720 -> 728 ;
729 [label="vel_east_ins <= 2.1\nsquared_error = 0.0\nsamples = 3\nvalue = 0.5"] ;
693 -> 729 ;
730 [label="squared_error = 0.0\nsamples = 1\nvalue = 0.6"] ;
729 -> 730 ;
731 [label="vel_east_ins <= 3.3\nsquared_error = 0.0\nsamples = 2\nvalue = 0.5"] ;
729 -> 731 ;
732 [label="squared_error = 0.0\nsamples = 1\nvalue = 0.5"] ;
731 -> 732 ;
733 [label="squared_error = -0.0\nsamples = 1\nvalue = 0.5"] ;
731 -> 733 ;
734 [label="roll_ins <= -0.0\nsquared_error = 0.0\nsamples = 3\nvalue = 1.5"] ;
692 -> 734 ;
735 [label="squared_error = 0.0\nsamples = 1\nvalue = 1.1"] ;
734 -> 735 ;
736 [label="alt_sigma <= 4.7\nsquared_error = 0.0\nsamples = 2\nvalue = 1.6"] ;
734 -> 736 ;
737 [label="squared_error = 0.0\nsamples = 1\nvalue = 1.5"] ;
736 -> 737 ;
738 [label="squared_error = -0.0\nsamples = 1\nvalue = 1.6"] ;
736 -> 738 ;
739 [label="down_gps <= -57.3\nsquared_error = 0.0\nsamples = 29\nvalue = 1.2"] ;
691 -> 739 ;
740 [label="vel_north_ins <= 0.8\nsquared_error = 0.1\nsamples = 14\nvalue = 1.4"] ;
739 -> 740 ;
741 [label="vel_north_ins <= 0.4\nsquared_error = 0.0\nsamples = 11\nvalue = 1.3"] ;
740 -> 741 ;
742 [label="lat_sigma <= 2.3\nsquared_error = 0.0\nsamples = 3\nvalue = 1.2"] ;
741 -> 742 ;
743 [label="squared_error = 0.0\nsamples = 1\nvalue = 1.1"] ;
742 -> 743 ;
744 [label="vel_north_ins <= 0.3\nsquared_error = 0.0\nsamples = 2\nvalue = 1.2"] ;
742 -> 744 ;
745 [label="squared_error = 0.0\nsamples = 1\nvalue = 1.2"] ;
744 -> 745 ;
746 [label="squared_error = 0.0\nsamples = 1\nvalue = 1.2"] ;
744 -> 746 ;
747 [label="roll_ins <= 0.0\nsquared_error = 0.0\nsamples = 8\nvalue = 1.3"] ;
741 -> 747 ;
748 [label="yaw_ins <= 1.3\nsquared_error = 0.0\nsamples = 6\nvalue = 1.3"] ;
747 -> 748 ;
749 [label="vel_east_ins <= 2.0\nsquared_error = 0.0\nsamples = 4\nvalue = 1.3"] ;
748 -> 749 ;
750 [label="squared_error = 0.0\nsamples = 1\nvalue = 1.3"] ;
749 -> 750 ;
751 [label="alt_sigma <= 4.5\nsquared_error = 0.0\nsamples = 3\nvalue = 1.3"] ;
749 -> 751 ;
752 [label="roll_ins <= -0.0\nsquared_error = 0.0\nsamples = 2\nvalue = 1.3"] ;
751 -> 752 ;
753 [label="squared_error = 0.0\nsamples = 1\nvalue = 1.3"] ;
752 -> 753 ;
754 [label="squared_error = 0.0\nsamples = 1\nvalue = 1.3"] ;
752 -> 754 ;
755 [label="squared_error = 0.0\nsamples = 1\nvalue = 1.3"] ;
751 -> 755 ;
756 [label="lon_gps <= -1.3\nsquared_error = 0.0\nsamples = 2\nvalue = 1.2"] ;
748 -> 756 ;
757 [label="squared_error = 0.0\nsamples = 1\nvalue = 1.3"] ;
756 -> 757 ;
758 [label="squared_error = 0.0\nsamples = 1\nvalue = 1.2"] ;
756 -> 758 ;
759 [label="vel_east_ins <= 3.0\nsquared_error = 0.0\nsamples = 2\nvalue = 1.4"] ;
747 -> 759 ;
760 [label="squared_error = 0.0\nsamples = 1\nvalue = 1.4"] ;
759 -> 760 ;
761 [label="squared_error = 0.0\nsamples = 1\nvalue = 1.4"] ;
759 -> 761 ;
762 [label="vel_east_ins <= 3.4\nsquared_error = 0.1\nsamples = 3\nvalue = 1.8"] ;
740 -> 762 ;
763 [label="lon_gps <= -1.3\nsquared_error = 0.0\nsamples = 2\nvalue = 2.0"] ;
762 -> 763 ;
764 [label="squared_error = 0.0\nsamples = 1\nvalue = 2.1"] ;
763 -> 764 ;
765 [label="squared_error = -0.0\nsamples = 1\nvalue = 2.0"] ;
763 -> 765 ;
766 [label="squared_error = 0.0\nsamples = 1\nvalue = 1.4"] ;
762 -> 766 ;
767 [label="east_gps <= 619644.8\nsquared_error = 0.0\nsamples = 15\nvalue = 1.2"] ;
739 -> 767 ;
768 [label="squared_error = 0.0\nsamples = 1\nvalue = 1.4"] ;
767 -> 768 ;
769 [label="roll_ins <= -0.0\nsquared_error = 0.0\nsamples = 14\nvalue = 1.1"] ;
767 -> 769 ;
770 [label="alt_sigma <= 4.4\nsquared_error = 0.0\nsamples = 4\nvalue = 1.0"] ;
769 -> 770 ;
771 [label="lat_gps <= 51.8\nsquared_error = 0.0\nsamples = 2\nvalue = 1.1"] ;
770 -> 771 ;
772 [label="squared_error = 0.0\nsamples = 1\nvalue = 1.1"] ;
771 -> 772 ;
773 [label="squared_error = -0.0\nsamples = 1\nvalue = 1.1"] ;
771 -> 773 ;
774 [label="lat_gps <= 51.8\nsquared_error = 0.0\nsamples = 2\nvalue = 1.0"] ;
770 -> 774 ;
775 [label="squared_error = -0.0\nsamples = 1\nvalue = 1.0"] ;
774 -> 775 ;
776 [label="squared_error = 0.0\nsamples = 1\nvalue = 1.0"] ;
774 -> 776 ;
777 [label="lat_sigma <= 2.1\nsquared_error = 0.0\nsamples = 10\nvalue = 1.2"] ;
769 -> 777 ;
778 [label="vel_down_ins <= -0.1\nsquared_error = 0.0\nsamples = 2\nvalue = 1.1"] ;
777 -> 778 ;
779 [label="squared_error = 0.0\nsamples = 1\nvalue = 1.2"] ;
778 -> 779 ;
780 [label="squared_error = -0.0\nsamples = 1\nvalue = 1.1"] ;
778 -> 780 ;
781 [label="lon_sigma <= 1.8\nsquared_error = 0.0\nsamples = 8\nvalue = 1.2"] ;
777 -> 781 ;
782 [label="vel_down_ins <= -0.1\nsquared_error = 0.0\nsamples = 6\nvalue = 1.2"] ;
781 -> 782 ;
783 [label="lon_gps <= -1.3\nsquared_error = 0.0\nsamples = 2\nvalue = 1.2"] ;
782 -> 783 ;
784 [label="squared_error = -0.0\nsamples = 1\nvalue = 1.2"] ;
783 -> 784 ;
785 [label="squared_error = -0.0\nsamples = 1\nvalue = 1.2"] ;
783 -> 785 ;
786 [label="roll_ins <= 0.0\nsquared_error = 0.0\nsamples = 4\nvalue = 1.2"] ;
782 -> 786 ;
787 [label="yaw_ins <= 1.2\nsquared_error = 0.0\nsamples = 3\nvalue = 1.1"] ;
786 -> 787 ;
788 [label="squared_error = 0.0\nsamples = 1\nvalue = 1.1"] ;
787 -> 788 ;
789 [label="lat_gps <= 51.8\nsquared_error = 0.0\nsamples = 2\nvalue = 1.2"] ;
787 -> 789 ;
790 [label="squared_error = 0.0\nsamples = 1\nvalue = 1.2"] ;
789 -> 790 ;
791 [label="squared_error = 0.0\nsamples = 1\nvalue = 1.2"] ;
789 -> 791 ;
792 [label="squared_error = 0.0\nsamples = 1\nvalue = 1.2"] ;
786 -> 792 ;
793 [label="yaw_ins <= 1.1\nsquared_error = 0.0\nsamples = 2\nvalue = 1.2"] ;
781 -> 793 ;
794 [label="squared_error = 0.0\nsamples = 1\nvalue = 1.2"] ;
793 -> 794 ;
795 [label="squared_error = 0.0\nsamples = 1\nvalue = 1.2"] ;
793 -> 795 ;
796 [label="vel_north_ins <= 0.2\nsquared_error = 0.0\nsamples = 5\nvalue = 1.6"] ;
604 -> 796 ;
797 [label="pitch_ins <= -0.0\nsquared_error = 0.0\nsamples = 3\nvalue = 1.7"] ;
796 -> 797 ;
798 [label="north_gps <= 5734969.8\nsquared_error = 0.0\nsamples = 2\nvalue = 1.7"] ;
797 -> 798 ;
799 [label="squared_error = 0.0\nsamples = 1\nvalue = 1.7"] ;
798 -> 799 ;
800 [label="squared_error = 0.0\nsamples = 1\nvalue = 1.7"] ;
798 -> 800 ;
801 [label="squared_error = 0.0\nsamples = 1\nvalue = 1.8"] ;
797 -> 801 ;
802 [label="east_gps <= 619826.4\nsquared_error = 0.0\nsamples = 2\nvalue = 1.4"] ;
796 -> 802 ;
803 [label="squared_error = 0.0\nsamples = 1\nvalue = 1.4"] ;
802 -> 803 ;
804 [label="squared_error = -0.0\nsamples = 1\nvalue = 1.4"] ;
802 -> 804 ;
805 [label="lat_sigma <= 2.3\nsquared_error = 0.1\nsamples = 14\nvalue = 0.6"] ;
603 -> 805 ;
806 [label="vel_north_ins <= 1.0\nsquared_error = 0.1\nsamples = 5\nvalue = 0.9"] ;
805 -> 806 ;
807 [label="vel_down_ins <= -0.1\nsquared_error = 0.0\nsamples = 4\nvalue = 0.8"] ;
806 -> 807 ;
808 [label="north_gps <= 5735033.8\nsquared_error = 0.0\nsamples = 2\nvalue = 0.7"] ;
807 -> 808 ;
809 [label="squared_error = 0.0\nsamples = 1\nvalue = 0.7"] ;
808 -> 809 ;
810 [label="squared_error = -0.0\nsamples = 1\nvalue = 0.7"] ;
808 -> 810 ;
811 [label="vel_east_ins <= 3.2\nsquared_error = 0.0\nsamples = 2\nvalue = 1.0"] ;
807 -> 811 ;
812 [label="squared_error = 0.0\nsamples = 1\nvalue = 1.1"] ;
811 -> 812 ;
813 [label="squared_error = 0.0\nsamples = 1\nvalue = 0.9"] ;
811 -> 813 ;
814 [label="squared_error = 0.0\nsamples = 1\nvalue = 1.5"] ;
806 -> 814 ;
815 [label="lat_sigma <= 2.4\nsquared_error = 0.0\nsamples = 9\nvalue = 0.4"] ;
805 -> 815 ;
816 [label="north_gps <= 5735034.5\nsquared_error = 0.0\nsamples = 4\nvalue = 0.5"] ;
815 -> 816 ;
817 [label="vel_down_ins <= -0.1\nsquared_error = 0.0\nsamples = 2\nvalue = 0.6"] ;
816 -> 817 ;
818 [label="squared_error = 0.0\nsamples = 1\nvalue = 0.6"] ;
817 -> 818 ;
819 [label="squared_error = 0.0\nsamples = 1\nvalue = 0.6"] ;
817 -> 819 ;
820 [label="lon_gps <= -1.3\nsquared_error = 0.0\nsamples = 2\nvalue = 0.5"] ;
816 -> 820 ;
821 [label="squared_error = 0.0\nsamples = 1\nvalue = 0.5"] ;
820 -> 821 ;
822 [label="squared_error = -0.0\nsamples = 1\nvalue = 0.5"] ;
820 -> 822 ;
823 [label="vel_down_ins <= -0.0\nsquared_error = 0.0\nsamples = 5\nvalue = 0.3"] ;
815 -> 823 ;
824 [label="roll_ins <= 0.0\nsquared_error = 0.0\nsamples = 3\nvalue = 0.4"] ;
823 -> 824 ;
825 [label="down_gps <= -60.2\nsquared_error = 0.0\nsamples = 2\nvalue = 0.4"] ;
824 -> 825 ;
826 [label="squared_error = 0.0\nsamples = 1\nvalue = 0.4"] ;
825 -> 826 ;
827 [label="squared_error = 0.0\nsamples = 1\nvalue = 0.4"] ;
825 -> 827 ;
828 [label="squared_error = -0.0\nsamples = 1\nvalue = 0.4"] ;
824 -> 828 ;
829 [label="down_gps <= -58.9\nsquared_error = 0.0\nsamples = 2\nvalue = 0.3"] ;
823 -> 829 ;
830 [label="squared_error = 0.0\nsamples = 1\nvalue = 0.2"] ;
829 -> 830 ;
831 [label="squared_error = -0.0\nsamples = 1\nvalue = 0.3"] ;
829 -> 831 ;
832 [label="alt_gps <= 56.2\nsquared_error = 0.2\nsamples = 42\nvalue = 1.5"] ;
602 -> 832 ;
833 [label="lon_sigma <= 1.6\nsquared_error = 0.2\nsamples = 13\nvalue = 1.9"] ;
832 -> 833 ;
834 [label="lat_gps <= 51.8\nsquared_error = 0.0\nsamples = 5\nvalue = 1.5"] ;
833 -> 834 ;
835 [label="squared_error = 0.0\nsamples = 1\nvalue = 1.1"] ;
834 -> 835 ;
836 [label="alt_gps <= 55.4\nsquared_error = 0.0\nsamples = 4\nvalue = 1.6"] ;
834 -> 836 ;
837 [label="squared_error = 0.0\nsamples = 1\nvalue = 1.8"] ;
836 -> 837 ;
838 [label="lat_sigma <= 2.0\nsquared_error = 0.0\nsamples = 3\nvalue = 1.6"] ;
836 -> 838 ;
839 [label="squared_error = 0.0\nsamples = 1\nvalue = 1.6"] ;
838 -> 839 ;
840 [label="pitch_ins <= -0.0\nsquared_error = 0.0\nsamples = 2\nvalue = 1.5"] ;
838 -> 840 ;
841 [label="squared_error = 0.0\nsamples = 1\nvalue = 1.5"] ;
840 -> 841 ;
842 [label="squared_error = 0.0\nsamples = 1\nvalue = 1.5"] ;
840 -> 842 ;
843 [label="alt_sigma <= 4.9\nsquared_error = 0.1\nsamples = 8\nvalue = 2.1"] ;
833 -> 843 ;
844 [label="pitch_ins <= -0.0\nsquared_error = 0.1\nsamples = 7\nvalue = 2.2"] ;
843 -> 844 ;
845 [label="vel_north_ins <= 0.2\nsquared_error = 0.1\nsamples = 5\nvalue = 2.4"] ;
844 -> 845 ;
846 [label="yaw_ins <= 1.3\nsquared_error = 0.0\nsamples = 2\nvalue = 2.1"] ;
845 -> 846 ;
847 [label="squared_error = 0.0\nsamples = 1\nvalue = 2.2"] ;
846 -> 847 ;
848 [label="squared_error = 0.0\nsamples = 1\nvalue = 1.9"] ;
846 -> 848 ;
849 [label="lon_gps <= -1.3\nsquared_error = 0.0\nsamples = 3\nvalue = 2.5"] ;
845 -> 849 ;
850 [label="alt_gps <= 56.1\nsquared_error = 0.0\nsamples = 2\nvalue = 2.4"] ;
849 -> 850 ;
851 [label="squared_error = 0.0\nsamples = 1\nvalue = 2.3"] ;
850 -> 851 ;
852 [label="squared_error = -0.0\nsamples = 1\nvalue = 2.5"] ;
850 -> 852 ;
853 [label="squared_error = 0.0\nsamples = 1\nvalue = 2.8"] ;
849 -> 853 ;
854 [label="yaw_ins <= 1.3\nsquared_error = 0.0\nsamples = 2\nvalue = 1.9"] ;
844 -> 854 ;
855 [label="squared_error = 0.0\nsamples = 1\nvalue = 2.0"] ;
854 -> 855 ;
856 [label="squared_error = 0.0\nsamples = 1\nvalue = 1.7"] ;
854 -> 856 ;
857 [label="squared_error = 0.0\nsamples = 1\nvalue = 1.5"] ;
843 -> 857 ;
858 [label="east_gps <= 619667.3\nsquared_error = 0.1\nsamples = 29\nvalue = 1.4"] ;
832 -> 858 ;
859 [label="alt_sigma <= 4.5\nsquared_error = 0.1\nsamples = 27\nvalue = 1.3"] ;
858 -> 859 ;
860 [label="north_gps <= 5734969.0\nsquared_error = 0.0\nsamples = 23\nvalue = 1.4"] ;
859 -> 860 ;
861 [label="alt_gps <= 56.7\nsquared_error = 0.0\nsamples = 4\nvalue = 1.6"] ;
860 -> 861 ;
862 [label="lat_sigma <= 1.9\nsquared_error = 0.0\nsamples = 3\nvalue = 1.5"] ;
861 -> 862 ;
863 [label="squared_error = 0.0\nsamples = 1\nvalue = 1.6"] ;
862 -> 863 ;
864 [label="lat_sigma <= 2.1\nsquared_error = 0.0\nsamples = 2\nvalue = 1.5"] ;
862 -> 864 ;
865 [label="squared_error = 0.0\nsamples = 1\nvalue = 1.5"] ;
864 -> 865 ;
866 [label="squared_error = 0.0\nsamples = 1\nvalue = 1.5"] ;
864 -> 866 ;
867 [label="squared_error = 0.0\nsamples = 1\nvalue = 2.0"] ;
861 -> 867 ;
868 [label="east_gps <= 619581.8\nsquared_error = 0.0\nsamples = 19\nvalue = 1.3"] ;
860 -> 868 ;
869 [label="squared_error = 0.0\nsamples = 1\nvalue = 0.8"] ;
868 -> 869 ;
870 [label="alt_sigma <= 4.4\nsquared_error = 0.0\nsamples = 18\nvalue = 1.3"] ;
868 -> 870 ;
871 [label="east_gps <= 619641.3\nsquared_error = 0.0\nsamples = 14\nvalue = 1.3"] ;
870 -> 871 ;
872 [label="roll_ins <= -0.0\nsquared_error = 0.0\nsamples = 7\nvalue = 1.2"] ;
871 -> 872 ;
873 [label="squared_error = 0.0\nsamples = 1\nvalue = 1.4"] ;
872 -> 873 ;
874 [label="down_gps <= -56.3\nsquared_error = 0.0\nsamples = 6\nvalue = 1.2"] ;
872 -> 874 ;
875 [label="alt_sigma <= 4.1\nsquared_error = 0.0\nsamples = 3\nvalue = 1.2"] ;
874 -> 875 ;
876 [label="squared_error = 0.0\nsamples = 1\nvalue = 1.1"] ;
875 -> 876 ;
877 [label="pitch_ins <= -0.0\nsquared_error = 0.0\nsamples = 2\nvalue = 1.2"] ;
875 -> 877 ;
878 [label="squared_error = 0.0\nsamples = 1\nvalue = 1.2"] ;
877 -> 878 ;
879 [label="squared_error = 0.0\nsamples = 1\nvalue = 1.2"] ;
877 -> 879 ;
880 [label="roll_ins <= -0.0\nsquared_error = 0.0\nsamples = 3\nvalue = 1.3"] ;
874 -> 880 ;
881 [label="squared_error = -0.0\nsamples = 1\nvalue = 1.2"] ;
880 -> 881 ;
882 [label="yaw_ins <= 1.9\nsquared_error = 0.0\nsamples = 2\nvalue = 1.3"] ;
880 -> 882 ;
883 [label="squared_error = 0.0\nsamples = 1\nvalue = 1.3"] ;
882 -> 883 ;
884 [label="squared_error = 0.0\nsamples = 1\nvalue = 1.3"] ;
882 -> 884 ;
885 [label="vel_down_ins <= 0.0\nsquared_error = 0.0\nsamples = 7\nvalue = 1.4"] ;
871 -> 885 ;
886 [label="roll_ins <= -0.0\nsquared_error = 0.0\nsamples = 5\nvalue = 1.3"] ;
885 -> 886 ;
887 [label="alt_sigma <= 4.4\nsquared_error = 0.0\nsamples = 2\nvalue = 1.4"] ;
886 -> 887 ;
888 [label="squared_error = 0.0\nsamples = 1\nvalue = 1.5"] ;
887 -> 888 ;
889 [label="squared_error = -0.0\nsamples = 1\nvalue = 1.4"] ;
887 -> 889 ;
890 [label="yaw_ins <= 1.3\nsquared_error = 0.0\nsamples = 3\nvalue = 1.3"] ;
886 -> 890 ;
891 [label="squared_error = 0.0\nsamples = 1\nvalue = 1.3"] ;
890 -> 891 ;
892 [label="lon_sigma <= 1.6\nsquared_error = 0.0\nsamples = 2\nvalue = 1.3"] ;
890 -> 892 ;
893 [label="squared_error = 0.0\nsamples = 1\nvalue = 1.2"] ;
892 -> 893 ;
894 [label="squared_error = 0.0\nsamples = 1\nvalue = 1.3"] ;
892 -> 894 ;
895 [label="vel_north_ins <= 0.3\nsquared_error = 0.0\nsamples = 2\nvalue = 1.5"] ;
885 -> 895 ;
896 [label="squared_error = 0.0\nsamples = 1\nvalue = 1.5"] ;
895 -> 896 ;
897 [label="squared_error = 0.0\nsamples = 1\nvalue = 1.5"] ;
895 -> 897 ;
898 [label="roll_ins <= -0.0\nsquared_error = 0.0\nsamples = 4\nvalue = 1.5"] ;
870 -> 898 ;
899 [label="squared_error = 0.0\nsamples = 1\nvalue = 1.4"] ;
898 -> 899 ;
900 [label="alt_gps <= 56.3\nsquared_error = 0.0\nsamples = 3\nvalue = 1.5"] ;
898 -> 900 ;
901 [label="squared_error = 0.0\nsamples = 1\nvalue = 1.6"] ;
900 -> 901 ;
902 [label="lon_gps <= -1.3\nsquared_error = 0.0\nsamples = 2\nvalue = 1.5"] ;
900 -> 902 ;
903 [label="squared_error = 0.0\nsamples = 1\nvalue = 1.5"] ;
902 -> 903 ;
904 [label="squared_error = 0.0\nsamples = 1\nvalue = 1.5"] ;
902 -> 904 ;
905 [label="alt_sigma <= 4.9\nsquared_error = 0.1\nsamples = 4\nvalue = 1.0"] ;
859 -> 905 ;
906 [label="lat_gps <= 51.8\nsquared_error = 0.0\nsamples = 3\nvalue = 0.8"] ;
905 -> 906 ;
907 [label="squared_error = 0.0\nsamples = 1\nvalue = 0.5"] ;
906 -> 907 ;
908 [label="vel_north_ins <= 0.1\nsquared_error = 0.0\nsamples = 2\nvalue = 0.9"] ;
906 -> 908 ;
909 [label="squared_error = 0.0\nsamples = 1\nvalue = 1.0"] ;
908 -> 909 ;
910 [label="squared_error = 0.0\nsamples = 1\nvalue = 0.9"] ;
908 -> 910 ;
911 [label="squared_error = 0.0\nsamples = 1\nvalue = 1.4"] ;
905 -> 911 ;
912 [label="lon_sigma <= 1.5\nsquared_error = 0.1\nsamples = 2\nvalue = 1.8"] ;
858 -> 912 ;
913 [label="squared_error = 0.0\nsamples = 1\nvalue = 1.7"] ;
912 -> 913 ;
914 [label="squared_error = -0.0\nsamples = 1\nvalue = 2.3"] ;
912 -> 914 ;
915 [label="vel_north_ins <= -0.1\nsquared_error = 0.6\nsamples = 132\nvalue = 1.7"] ;
337 -> 915 ;
916 [label="lat_sigma <= 2.7\nsquared_error = 0.4\nsamples = 64\nvalue = 2.0"] ;
915 -> 916 ;
917 [label="yaw_ins <= 2.7\nsquared_error = 0.0\nsamples = 3\nvalue = 3.2"] ;
916 -> 917 ;
918 [label="squared_error = 0.0\nsamples = 1\nvalue = 3.5"] ;
917 -> 918 ;
919 [label="lon_gps <= -1.3\nsquared_error = 0.0\nsamples = 2\nvalue = 3.1"] ;
917 -> 919 ;
920 [label="squared_error = 0.0\nsamples = 1\nvalue = 3.1"] ;
919 -> 920 ;
921 [label="squared_error = -0.0\nsamples = 1\nvalue = 3.0"] ;
919 -> 921 ;
922 [label="lon_sigma <= 2.4\nsquared_error = 0.4\nsamples = 61\nvalue = 1.9"] ;
916 -> 922 ;
923 [label="lon_sigma <= 2.4\nsquared_error = 0.3\nsamples = 30\nvalue = 1.6"] ;
922 -> 923 ;
924 [label="lon_sigma <= 2.3\nsquared_error = 0.1\nsamples = 25\nvalue = 1.8"] ;
923 -> 924 ;
925 [label="vel_down_ins <= 0.2\nsquared_error = 0.1\nsamples = 13\nvalue = 2.0"] ;
924 -> 925 ;
926 [label="vel_north_ins <= -2.9\nsquared_error = 0.0\nsamples = 9\nvalue = 1.9"] ;
925 -> 926 ;
927 [label="vel_down_ins <= -0.0\nsquared_error = 0.0\nsamples = 5\nvalue = 1.8"] ;
926 -> 927 ;
928 [label="squared_error = 0.0\nsamples = 1\nvalue = 1.9"] ;
927 -> 928 ;
929 [label="alt_gps <= 64.0\nsquared_error = 0.0\nsamples = 4\nvalue = 1.7"] ;
927 -> 929 ;
930 [label="lon_sigma <= 2.2\nsquared_error = 0.0\nsamples = 3\nvalue = 1.7"] ;
929 -> 930 ;
931 [label="lat_gps <= 51.8\nsquared_error = 0.0\nsamples = 2\nvalue = 1.7"] ;
930 -> 931 ;
932 [label="squared_error = 0.0\nsamples = 1\nvalue = 1.7"] ;
931 -> 932 ;
933 [label="squared_error = -0.0\nsamples = 1\nvalue = 1.7"] ;
931 -> 933 ;
934 [label="squared_error = 0.0\nsamples = 1\nvalue = 1.8"] ;
930 -> 934 ;
935 [label="squared_error = 0.0\nsamples = 1\nvalue = 1.6"] ;
929 -> 935 ;
936 [label="alt_sigma <= 5.6\nsquared_error = 0.0\nsamples = 4\nvalue = 2.0"] ;
926 -> 936 ;
937 [label="roll_ins <= -0.0\nsquared_error = 0.0\nsamples = 2\nvalue = 1.9"] ;
936 -> 937 ;
938 [label="squared_error = 0.0\nsamples = 1\nvalue = 1.8"] ;
937 -> 938 ;
939 [label="squared_error = -0.0\nsamples = 1\nvalue = 1.9"] ;
937 -> 939 ;
940 [label="north_gps <= 5734815.5\nsquared_error = 0.0\nsamples = 2\nvalue = 2.1"] ;
936 -> 940 ;
941 [label="squared_error = 0.0\nsamples = 1\nvalue = 2.1"] ;
940 -> 941 ;
942 [label="squared_error = -0.0\nsamples = 1\nvalue = 2.2"] ;
940 -> 942 ;
943 [label="yaw_ins <= 4.0\nsquared_error = 0.1\nsamples = 4\nvalue = 2.4"] ;
925 -> 943 ;
944 [label="vel_east_ins <= -2.6\nsquared_error = 0.0\nsamples = 3\nvalue = 2.2"] ;
943 -> 944 ;
945 [label="lon_gps <= -1.3\nsquared_error = 0.0\nsamples = 2\nvalue = 2.3"] ;
944 -> 945 ;
946 [label="squared_error = 0.0\nsamples = 1\nvalue = 2.3"] ;
945 -> 946 ;
947 [label="squared_error = -0.0\nsamples = 1\nvalue = 2.4"] ;
945 -> 947 ;
948 [label="squared_error = -0.0\nsamples = 1\nvalue = 2.0"] ;
944 -> 948 ;
949 [label="squared_error = 0.0\nsamples = 1\nvalue = 2.8"] ;
943 -> 949 ;
950 [label="vel_north_ins <= -5.1\nsquared_error = 0.1\nsamples = 12\nvalue = 1.6"] ;
924 -> 950 ;
951 [label="squared_error = 0.0\nsamples = 1\nvalue = 2.3"] ;
950 -> 951 ;
952 [label="alt_sigma <= 5.9\nsquared_error = 0.1\nsamples = 11\nvalue = 1.5"] ;
950 -> 952 ;
953 [label="north_gps <= 5734768.8\nsquared_error = 0.0\nsamples = 2\nvalue = 2.0"] ;
952 -> 953 ;
954 [label="squared_error = 0.0\nsamples = 1\nvalue = 1.9"] ;
953 -> 954 ;
955 [label="squared_error = -0.0\nsamples = 1\nvalue = 2.1"] ;
953 -> 955 ;
956 [label="down_gps <= -61.4\nsquared_error = 0.0\nsamples = 9\nvalue = 1.4"] ;
952 -> 956 ;
957 [label="squared_error = 0.0\nsamples = 1\nvalue = 0.9"] ;
956 -> 957 ;
958 [label="vel_down_ins <= -0.0\nsquared_error = 0.0\nsamples = 8\nvalue = 1.5"] ;
956 -> 958 ;
959 [label="squared_error = 0.0\nsamples = 1\nvalue = 1.2"] ;
958 -> 959 ;
960 [label="lon_sigma <= 2.3\nsquared_error = 0.0\nsamples = 7\nvalue = 1.5"] ;
958 -> 960 ;
961 [label="vel_east_ins <= 0.3\nsquared_error = 0.0\nsamples = 3\nvalue = 1.6"] ;
960 -> 961 ;
962 [label="alt_gps <= 60.5\nsquared_error = 0.0\nsamples = 2\nvalue = 1.6"] ;
961 -> 962 ;
963 [label="squared_error = 0.0\nsamples = 1\nvalue = 1.7"] ;
962 -> 963 ;
964 [label="squared_error = 0.0\nsamples = 1\nvalue = 1.6"] ;
962 -> 964 ;
965 [label="squared_error = -0.0\nsamples = 1\nvalue = 1.4"] ;
961 -> 965 ;
966 [label="lon_sigma <= 2.3\nsquared_error = 0.0\nsamples = 4\nvalue = 1.4"] ;
960 -> 966 ;
967 [label="lat_sigma <= 3.2\nsquared_error = 0.0\nsamples = 2\nvalue = 1.4"] ;
966 -> 967 ;
968 [label="squared_error = 0.0\nsamples = 1\nvalue = 1.4"] ;
967 -> 968 ;
969 [label="squared_error = -0.0\nsamples = 1\nvalue = 1.3"] ;
967 -> 969 ;
970 [label="alt_gps <= 59.9\nsquared_error = 0.0\nsamples = 2\nvalue = 1.5"] ;
966 -> 970 ;
971 [label="squared_error = 0.0\nsamples = 1\nvalue = 1.5"] ;
970 -> 971 ;
972 [label="squared_error = 0.0\nsamples = 1\nvalue = 1.5"] ;
970 -> 972 ;
973 [label="vel_down_ins <= -0.0\nsquared_error = 0.3\nsamples = 5\nvalue = 0.8"] ;
923 -> 973 ;
974 [label="roll_ins <= 0.0\nsquared_error = 0.0\nsamples = 2\nvalue = 1.3"] ;
973 -> 974 ;
975 [label="squared_error = 0.0\nsamples = 1\nvalue = 1.4"] ;
974 -> 975 ;
976 [label="squared_error = -0.0\nsamples = 1\nvalue = 0.9"] ;
974 -> 976 ;
977 [label="lat_gps <= 51.8\nsquared_error = 0.0\nsamples = 3\nvalue = 0.3"] ;
973 -> 977 ;
978 [label="squared_error = 0.0\nsamples = 1\nvalue = 0.1"] ;
977 -> 978 ;
979 [label="lat_sigma <= 3.0\nsquared_error = 0.0\nsamples = 2\nvalue = 0.5"] ;
977 -> 979 ;
980 [label="squared_error = 0.0\nsamples = 1\nvalue = 0.5"] ;
979 -> 980 ;
981 [label="squared_error = -0.0\nsamples = 1\nvalue = 0.6"] ;
979 -> 981 ;
982 [label="lat_sigma <= 3.7\nsquared_error = 0.3\nsamples = 31\nvalue = 2.2"] ;
922 -> 982 ;
983 [label="yaw_ins <= 3.0\nsquared_error = 0.2\nsamples = 26\nvalue = 2.3"] ;
982 -> 983 ;
984 [label="alt_sigma <= 5.0\nsquared_error = 0.0\nsamples = 5\nvalue = 1.7"] ;
983 -> 984 ;
985 [label="squared_error = 0.0\nsamples = 1\nvalue = 1.4"] ;
984 -> 985 ;
986 [label="lon_sigma <= 2.5\nsquared_error = 0.0\nsamples = 4\nvalue = 1.8"] ;
984 -> 986 ;
987 [label="roll_ins <= -0.0\nsquared_error = 0.0\nsamples = 3\nvalue = 1.8"] ;
986 -> 987 ;
988 [label="squared_error = 0.0\nsamples = 1\nvalue = 1.8"] ;
987 -> 988 ;
989 [label="lat_gps <= 51.8\nsquared_error = 0.0\nsamples = 2\nvalue = 1.9"] ;
987 -> 989 ;
990 [label="squared_error = 0.0\nsamples = 1\nvalue = 1.9"] ;
989 -> 990 ;
991 [label="squared_error = -0.0\nsamples = 1\nvalue = 1.9"] ;
989 -> 991 ;
992 [label="squared_error = 0.0\nsamples = 1\nvalue = 2.0"] ;
986 -> 992 ;
993 [label="pitch_ins <= 0.0\nsquared_error = 0.1\nsamples = 21\nvalue = 2.4"] ;
983 -> 993 ;
994 [label="lon_sigma <= 2.5\nsquared_error = 0.1\nsamples = 20\nvalue = 2.4"] ;
993 -> 994 ;
995 [label="vel_down_ins <= -0.0\nsquared_error = 0.0\nsamples = 9\nvalue = 2.6"] ;
994 -> 995 ;
996 [label="vel_down_ins <= -0.2\nsquared_error = 0.0\nsamples = 2\nvalue = 3.0"] ;
995 -> 996 ;
997 [label="squared_error = 0.0\nsamples = 1\nvalue = 3.0"] ;
996 -> 997 ;
998 [label="squared_error = 0.0\nsamples = 1\nvalue = 2.9"] ;
996 -> 998 ;
999 [label="vel_down_ins <= 0.0\nsquared_error = 0.0\nsamples = 7\nvalue = 2.5"] ;
995 -> 999 ;
1000 [label="vel_down_ins <= -0.0\nsquared_error = 0.0\nsamples = 2\nvalue = 2.3"] ;
999 -> 1000 ;
1001 [label="squared_error = 0.0\nsamples = 1\nvalue = 2.4"] ;
1000 -> 1001 ;
1002 [label="squared_error = -0.0\nsamples = 1\nvalue = 2.3"] ;
1000 -> 1002 ;
1003 [label="roll_ins <= 0.0\nsquared_error = 0.0\nsamples = 5\nvalue = 2.6"] ;
999 -> 1003 ;
1004 [label="pitch_ins <= -0.1\nsquared_error = 0.0\nsamples = 4\nvalue = 2.5"] ;
1003 -> 1004 ;
1005 [label="squared_error = 0.0\nsamples = 1\nvalue = 2.4"] ;
1004 -> 1005 ;
1006 [label="lat_gps <= 51.8\nsquared_error = 0.0\nsamples = 3\nvalue = 2.6"] ;
1004 -> 1006 ;
1007 [label="pitch_ins <= -0.1\nsquared_error = 0.0\nsamples = 2\nvalue = 2.5"] ;
1006 -> 1007 ;
1008 [label="squared_error = 0.0\nsamples = 1\nvalue = 2.5"] ;
1007 -> 1008 ;
1009 [label="squared_error = -0.0\nsamples = 1\nvalue = 2.5"] ;
1007 -> 1009 ;
1010 [label="squared_error = 0.0\nsamples = 1\nvalue = 2.6"] ;
1006 -> 1010 ;
1011 [label="squared_error = -0.0\nsamples = 1\nvalue = 2.9"] ;
1003 -> 1011 ;
1012 [label="lat_gps <= 51.8\nsquared_error = 0.1\nsamples = 11\nvalue = 2.3"] ;
994 -> 1012 ;
1013 [label="lat_gps <= 51.8\nsquared_error = 0.1\nsamples = 10\nvalue = 2.3"] ;
1012 -> 1013 ;
1014 [label="lat_sigma <= 3.4\nsquared_error = 0.0\nsamples = 2\nvalue = 2.7"] ;
1013 -> 1014 ;
1015 [label="squared_error = 0.0\nsamples = 1\nvalue = 2.5"] ;
1014 -> 1015 ;
1016 [label="squared_error = -0.0\nsamples = 1\nvalue = 2.8"] ;
1014 -> 1016 ;
1017 [label="vel_east_ins <= 0.2\nsquared_error = 0.0\nsamples = 8\nvalue = 2.2"] ;
1013 -> 1017 ;
1018 [label="vel_north_ins <= -4.5\nsquared_error = 0.0\nsamples = 6\nvalue = 2.2"] ;
1017 -> 1018 ;
1019 [label="squared_error = 0.0\nsamples = 1\nvalue = 2.7"] ;
1018 -> 1019 ;
1020 [label="lat_sigma <= 3.5\nsquared_error = 0.0\nsamples = 5\nvalue = 2.1"] ;
1018 -> 1020 ;
1021 [label="north_gps <= 5735249.5\nsquared_error = 0.0\nsamples = 3\nvalue = 2.2"] ;
1020 -> 1021 ;
1022 [label="squared_error = 0.0\nsamples = 1\nvalue = 2.2"] ;
1021 -> 1022 ;
1023 [label="yaw_ins <= 3.1\nsquared_error = 0.0\nsamples = 2\nvalue = 2.2"] ;
1021 -> 1023 ;
1024 [label="squared_error = 0.0\nsamples = 1\nvalue = 2.2"] ;
1023 -> 1024 ;
1025 [label="squared_error = 0.0\nsamples = 1\nvalue = 2.1"] ;
1023 -> 1025 ;
1026 [label="alt_sigma <= 9.8\nsquared_error = 0.0\nsamples = 2\nvalue = 2.0"] ;
1020 -> 1026 ;
1027 [label="squared_error = 0.0\nsamples = 1\nvalue = 2.1"] ;
1026 -> 1027 ;
1028 [label="squared_error = -0.0\nsamples = 1\nvalue = 2.0"] ;
1026 -> 1028 ;
1029 [label="alt_sigma <= 9.8\nsquared_error = 0.0\nsamples = 2\nvalue = 2.5"] ;
1017 -> 1029 ;
1030 [label="squared_error = 0.0\nsamples = 1\nvalue = 2.5"] ;
1029 -> 1030 ;
1031 [label="squared_error = 0.0\nsamples = 1\nvalue = 2.5"] ;
1029 -> 1031 ;
1032 [label="squared_error = -0.0\nsamples = 1\nvalue = 1.4"] ;
1012 -> 1032 ;
1033 [label="squared_error = -0.0\nsamples = 1\nvalue = 3.2"] ;
993 -> 1033 ;
1034 [label="pitch_ins <= -0.0\nsquared_error = 0.1\nsamples = 5\nvalue = 1.4"] ;
982 -> 1034 ;
1035 [label="east_gps <= 619885.0\nsquared_error = 0.0\nsamples = 2\nvalue = 1.0"] ;
1034 -> 1035 ;
1036 [label="squared_error = 0.0\nsamples = 1\nvalue = 1.0"] ;
1035 -> 1036 ;
1037 [label="squared_error = 0.0\nsamples = 1\nvalue = 1.1"] ;
1035 -> 1037 ;
1038 [label="yaw_ins <= 3.4\nsquared_error = 0.0\nsamples = 3\nvalue = 1.5"] ;
1034 -> 1038 ;
1039 [label="lat_sigma <= 3.8\nsquared_error = 0.0\nsamples = 2\nvalue = 1.6"] ;
1038 -> 1039 ;
1040 [label="squared_error = 0.0\nsamples = 1\nvalue = 1.5"] ;
1039 -> 1040 ;
1041 [label="squared_error = -0.0\nsamples = 1\nvalue = 1.6"] ;
1039 -> 1041 ;
1042 [label="squared_error = 0.0\nsamples = 1\nvalue = 1.5"] ;
1038 -> 1042 ;
1043 [label="alt_sigma <= 4.9\nsquared_error = 0.6\nsamples = 68\nvalue = 1.4"] ;
915 -> 1043 ;
1044 [label="down_gps <= -61.2\nsquared_error = 1.1\nsamples = 16\nvalue = 2.0"] ;
1043 -> 1044 ;
1045 [label="lat_gps <= 51.8\nsquared_error = 0.4\nsamples = 13\nvalue = 1.4"] ;
1044 -> 1045 ;
1046 [label="lat_gps <= 51.8\nsquared_error = 0.1\nsamples = 4\nvalue = 0.6"] ;
1045 -> 1046 ;
1047 [label="yaw_ins <= 1.2\nsquared_error = 0.0\nsamples = 2\nvalue = 0.9"] ;
1046 -> 1047 ;
1048 [label="squared_error = 0.0\nsamples = 1\nvalue = 0.8"] ;
1047 -> 1048 ;
1049 [label="squared_error = 0.0\nsamples = 1\nvalue = 1.1"] ;
1047 -> 1049 ;
1050 [label="north_gps <= 5735425.8\nsquared_error = 0.0\nsamples = 2\nvalue = 0.4"] ;
1046 -> 1050 ;
1051 [label="squared_error = 0.0\nsamples = 1\nvalue = 0.5"] ;
1050 -> 1051 ;
1052 [label="squared_error = 0.0\nsamples = 1\nvalue = 0.4"] ;
1050 -> 1052 ;
1053 [label="down_gps <= -62.5\nsquared_error = 0.2\nsamples = 9\nvalue = 1.7"] ;
1045 -> 1053 ;
1054 [label="alt_sigma <= 4.3\nsquared_error = 0.2\nsamples = 5\nvalue = 2.0"] ;
1053 -> 1054 ;
1055 [label="squared_error = 0.0\nsamples = 1\nvalue = 1.2"] ;
1054 -> 1055 ;
1056 [label="vel_east_ins <= 2.0\nsquared_error = 0.0\nsamples = 4\nvalue = 2.2"] ;
1054 -> 1056 ;
1057 [label="vel_north_ins <= 1.0\nsquared_error = 0.0\nsamples = 2\nvalue = 2.3"] ;
1056 -> 1057 ;
1058 [label="squared_error = 0.0\nsamples = 1\nvalue = 2.4"] ;
1057 -> 1058 ;
1059 [label="squared_error = -0.0\nsamples = 1\nvalue = 2.3"] ;
1057 -> 1059 ;
1060 [label="vel_east_ins <= 2.2\nsquared_error = 0.0\nsamples = 2\nvalue = 2.1"] ;
1056 -> 1060 ;
1061 [label="squared_error = 0.0\nsamples = 1\nvalue = 2.2"] ;
1060 -> 1061 ;
1062 [label="squared_error = -0.0\nsamples = 1\nvalue = 2.0"] ;
1060 -> 1062 ;
1063 [label="vel_east_ins <= 2.1\nsquared_error = 0.0\nsamples = 4\nvalue = 1.4"] ;
1053 -> 1063 ;
1064 [label="lat_sigma <= 3.4\nsquared_error = 0.0\nsamples = 2\nvalue = 1.6"] ;
1063 -> 1064 ;
1065 [label="squared_error = 0.0\nsamples = 1\nvalue = 1.5"] ;
1064 -> 1065 ;
1066 [label="squared_error = -0.0\nsamples = 1\nvalue = 1.6"] ;
1064 -> 1066 ;
1067 [label="lat_sigma <= 3.0\nsquared_error = 0.0\nsamples = 2\nvalue = 1.3"] ;
1063 -> 1067 ;
1068 [label="squared_error = -0.0\nsamples = 1\nvalue = 1.4"] ;
1067 -> 1068 ;
1069 [label="squared_error = -0.0\nsamples = 1\nvalue = 1.2"] ;
1067 -> 1069 ;
1070 [label="east_gps <= 619981.1\nsquared_error = 0.4\nsamples = 3\nvalue = 3.2"] ;
1044 -> 1070 ;
1071 [label="down_gps <= -60.8\nsquared_error = 0.0\nsamples = 2\nvalue = 2.8"] ;
1070 -> 1071 ;
1072 [label="squared_error = 0.0\nsamples = 1\nvalue = 3.0"] ;
1071 -> 1072 ;
1073 [label="squared_error = -0.0\nsamples = 1\nvalue = 2.7"] ;
1071 -> 1073 ;
1074 [label="squared_error = 0.0\nsamples = 1\nvalue = 4.3"] ;
1070 -> 1074 ;
1075 [label="vel_down_ins <= -0.0\nsquared_error = 0.4\nsamples = 52\nvalue = 1.2"] ;
1043 -> 1075 ;
1076 [label="alt_sigma <= 7.3\nsquared_error = 0.4\nsamples = 29\nvalue = 1.5"] ;
1075 -> 1076 ;
1077 [label="lon_sigma <= 2.3\nsquared_error = 0.3\nsamples = 21\nvalue = 1.7"] ;
1076 -> 1077 ;
1078 [label="lon_gps <= -1.3\nsquared_error = 0.1\nsamples = 4\nvalue = 1.0"] ;
1077 -> 1078 ;
1079 [label="lat_gps <= 51.8\nsquared_error = 0.1\nsamples = 2\nvalue = 0.5"] ;
1078 -> 1079 ;
1080 [label="squared_error = 0.0\nsamples = 1\nvalue = 0.7"] ;
1079 -> 1080 ;
1081 [label="squared_error = -0.0\nsamples = 1\nvalue = 0.2"] ;
1079 -> 1081 ;
1082 [label="alt_sigma <= 5.3\nsquared_error = 0.0\nsamples = 2\nvalue = 1.2"] ;
1078 -> 1082 ;
1083 [label="squared_error = 0.0\nsamples = 1\nvalue = 1.2"] ;
1082 -> 1083 ;
1084 [label="squared_error = -0.0\nsamples = 1\nvalue = 1.2"] ;
1082 -> 1084 ;
1085 [label="yaw_ins <= 2.7\nsquared_error = 0.2\nsamples = 17\nvalue = 1.8"] ;
1077 -> 1085 ;
1086 [label="vel_north_ins <= 0.8\nsquared_error = 0.0\nsamples = 15\nvalue = 2.0"] ;
1085 -> 1086 ;
1087 [label="down_gps <= -64.0\nsquared_error = 0.0\nsamples = 6\nvalue = 2.1"] ;
1086 -> 1087 ;
1088 [label="lat_gps <= 51.8\nsquared_error = 0.0\nsamples = 2\nvalue = 2.2"] ;
1087 -> 1088 ;
1089 [label="squared_error = 0.0\nsamples = 1\nvalue = 2.2"] ;
1088 -> 1089 ;
1090 [label="squared_error = 0.0\nsamples = 1\nvalue = 2.2"] ;
1088 -> 1090 ;
1091 [label="pitch_ins <= 0.0\nsquared_error = 0.0\nsamples = 4\nvalue = 2.1"] ;
1087 -> 1091 ;
1092 [label="alt_gps <= 60.5\nsquared_error = 0.0\nsamples = 3\nvalue = 2.1"] ;
1091 -> 1092 ;
1093 [label="squared_error = 0.0\nsamples = 1\nvalue = 2.1"] ;
1092 -> 1093 ;
1094 [label="east_gps <= 619742.5\nsquared_error = 0.0\nsamples = 2\nvalue = 2.1"] ;
1092 -> 1094 ;
1095 [label="squared_error = 0.0\nsamples = 1\nvalue = 2.1"] ;
1094 -> 1095 ;
1096 [label="squared_error = 0.0\nsamples = 1\nvalue = 2.1"] ;
1094 -> 1096 ;
1097 [label="squared_error = 0.0\nsamples = 1\nvalue = 2.0"] ;
1091 -> 1097 ;
1098 [label="alt_sigma <= 7.3\nsquared_error = 0.1\nsamples = 9\nvalue = 1.9"] ;
1086 -> 1098 ;
1099 [label="alt_sigma <= 7.2\nsquared_error = 0.0\nsamples = 6\nvalue = 1.8"] ;
1098 -> 1099 ;
1100 [label="lat_sigma <= 2.4\nsquared_error = 0.0\nsamples = 2\nvalue = 1.9"] ;
1099 -> 1100 ;
1101 [label="squared_error = 0.0\nsamples = 1\nvalue = 1.9"] ;
1100 -> 1101 ;
1102 [label="squared_error = 0.0\nsamples = 1\nvalue = 2.0"] ;
1100 -> 1102 ;
1103 [label="lon_gps <= -1.3\nsquared_error = 0.0\nsamples = 4\nvalue = 1.7"] ;
1099 -> 1103 ;
1104 [label="vel_down_ins <= -0.0\nsquared_error = 0.0\nsamples = 3\nvalue = 1.8"] ;
1103 -> 1104 ;
1105 [label="squared_error = 0.0\nsamples = 1\nvalue = 1.7"] ;
1104 -> 1105 ;
1106 [label="down_gps <= -62.9\nsquared_error = 0.0\nsamples = 2\nvalue = 1.8"] ;
1104 -> 1106 ;
1107 [label="squared_error = 0.0\nsamples = 1\nvalue = 1.8"] ;
1106 -> 1107 ;
1108 [label="squared_error = -0.0\nsamples = 1\nvalue = 1.8"] ;
1106 -> 1108 ;
1109 [label="squared_error = -0.0\nsamples = 1\nvalue = 1.6"] ;
1103 -> 1109 ;
1110 [label="north_gps <= 5735027.0\nsquared_error = 0.0\nsamples = 3\nvalue = 2.3"] ;
1098 -> 1110 ;
1111 [label="squared_error = 0.0\nsamples = 1\nvalue = 2.4"] ;
1110 -> 1111 ;
1112 [label="alt_sigma <= 7.3\nsquared_error = 0.0\nsamples = 2\nvalue = 2.2"] ;
1110 -> 1112 ;
1113 [label="squared_error = 0.0\nsamples = 1\nvalue = 2.2"] ;
1112 -> 1113 ;
1114 [label="squared_error = -0.0\nsamples = 1\nvalue = 2.3"] ;
1112 -> 1114 ;
1115 [label="vel_north_ins <= -0.1\nsquared_error = 0.2\nsamples = 2\nvalue = 1.0"] ;
1085 -> 1115 ;
1116 [label="squared_error = 0.0\nsamples = 1\nvalue = 0.5"] ;
1115 -> 1116 ;
1117 [label="squared_error = -0.0\nsamples = 1\nvalue = 1.3"] ;
1115 -> 1117 ;
1118 [label="roll_ins <= -0.0\nsquared_error = 0.0\nsamples = 8\nvalue = 0.8"] ;
1076 -> 1118 ;
1119 [label="alt_sigma <= 8.2\nsquared_error = 0.0\nsamples = 2\nvalue = 0.5"] ;
1118 -> 1119 ;
1120 [label="squared_error = 0.0\nsamples = 1\nvalue = 0.3"] ;
1119 -> 1120 ;
1121 [label="squared_error = 0.0\nsamples = 1\nvalue = 0.6"] ;
1119 -> 1121 ;
1122 [label="vel_down_ins <= -0.0\nsquared_error = 0.0\nsamples = 6\nvalue = 0.9"] ;
1118 -> 1122 ;
1123 [label="lon_gps <= -1.3\nsquared_error = 0.0\nsamples = 4\nvalue = 0.9"] ;
1122 -> 1123 ;
1124 [label="squared_error = 0.0\nsamples = 1\nvalue = 0.9"] ;
1123 -> 1124 ;
1125 [label="lat_sigma <= 3.0\nsquared_error = 0.0\nsamples = 3\nvalue = 0.9"] ;
1123 -> 1125 ;
1126 [label="vel_east_ins <= 3.2\nsquared_error = 0.0\nsamples = 2\nvalue = 0.9"] ;
1125 -> 1126 ;
1127 [label="squared_error = 0.0\nsamples = 1\nvalue = 0.9"] ;
1126 -> 1127 ;
1128 [label="squared_error = -0.0\nsamples = 1\nvalue = 0.9"] ;
1126 -> 1128 ;
1129 [label="squared_error = 0.0\nsamples = 1\nvalue = 0.9"] ;
1125 -> 1129 ;
1130 [label="alt_sigma <= 9.7\nsquared_error = 0.0\nsamples = 2\nvalue = 1.0"] ;
1122 -> 1130 ;
1131 [label="squared_error = 0.0\nsamples = 1\nvalue = 1.0"] ;
1130 -> 1131 ;
1132 [label="squared_error = 0.0\nsamples = 1\nvalue = 1.1"] ;
1130 -> 1132 ;
1133 [label="roll_ins <= -0.0\nsquared_error = 0.2\nsamples = 23\nvalue = 1.0"] ;
1075 -> 1133 ;
1134 [label="lon_sigma <= 2.2\nsquared_error = 0.0\nsamples = 7\nvalue = 0.5"] ;
1133 -> 1134 ;
1135 [label="lon_gps <= -1.3\nsquared_error = 0.0\nsamples = 3\nvalue = 0.8"] ;
1134 -> 1135 ;
1136 [label="squared_error = 0.0\nsamples = 1\nvalue = 0.7"] ;
1135 -> 1136 ;
1137 [label="vel_east_ins <= -0.0\nsquared_error = 0.0\nsamples = 2\nvalue = 0.8"] ;
1135 -> 1137 ;
1138 [label="squared_error = 0.0\nsamples = 1\nvalue = 0.8"] ;
1137 -> 1138 ;
1139 [label="squared_error = -0.0\nsamples = 1\nvalue = 0.8"] ;
1137 -> 1139 ;
1140 [label="north_gps <= 5735227.8\nsquared_error = 0.0\nsamples = 4\nvalue = 0.4"] ;
1134 -> 1140 ;
1141 [label="east_gps <= 619769.1\nsquared_error = 0.0\nsamples = 2\nvalue = 0.3"] ;
1140 -> 1141 ;
1142 [label="squared_error = 0.0\nsamples = 1\nvalue = 0.3"] ;
1141 -> 1142 ;
1143 [label="squared_error = 0.0\nsamples = 1\nvalue = 0.2"] ;
1141 -> 1143 ;
1144 [label="num_sat <= 6.5\nsquared_error = 0.0\nsamples = 2\nvalue = 0.5"] ;
1140 -> 1144 ;
1145 [label="squared_error = 0.0\nsamples = 1\nvalue = 0.5"] ;
1144 -> 1145 ;
1146 [label="squared_error = 0.0\nsamples = 1\nvalue = 0.4"] ;
1144 -> 1146 ;
1147 [label="lon_gps <= -1.3\nsquared_error = 0.1\nsamples = 16\nvalue = 1.2"] ;
1133 -> 1147 ;
1148 [label="down_gps <= -57.6\nsquared_error = 0.2\nsamples = 4\nvalue = 1.5"] ;
1147 -> 1148 ;
1149 [label="vel_east_ins <= -0.0\nsquared_error = 0.1\nsamples = 3\nvalue = 1.6"] ;
1148 -> 1149 ;
1150 [label="squared_error = 0.0\nsamples = 1\nvalue = 2.1"] ;
1149 -> 1150 ;
1151 [label="yaw_ins <= 2.0\nsquared_error = 0.0\nsamples = 2\nvalue = 1.5"] ;
1149 -> 1151 ;
1152 [label="squared_error = 0.0\nsamples = 1\nvalue = 1.7"] ;
1151 -> 1152 ;
1153 [label="squared_error = -0.0\nsamples = 1\nvalue = 1.4"] ;
1151 -> 1153 ;
1154 [label="squared_error = 0.0\nsamples = 1\nvalue = 0.7"] ;
1148 -> 1154 ;
1155 [label="vel_east_ins <= 1.3\nsquared_error = 0.0\nsamples = 12\nvalue = 1.0"] ;
1147 -> 1155 ;
1156 [label="vel_down_ins <= -0.0\nsquared_error = 0.0\nsamples = 5\nvalue = 1.2"] ;
1155 -> 1156 ;
1157 [label="alt_gps <= 64.5\nsquared_error = 0.0\nsamples = 4\nvalue = 1.1"] ;
1156 -> 1157 ;
1158 [label="vel_north_ins <= 0.1\nsquared_error = 0.0\nsamples = 2\nvalue = 1.1"] ;
1157 -> 1158 ;
1159 [label="squared_error = 0.0\nsamples = 1\nvalue = 1.1"] ;
1158 -> 1159 ;
1160 [label="squared_error = 0.0\nsamples = 1\nvalue = 1.1"] ;
1158 -> 1160 ;
1161 [label="down_gps <= -64.5\nsquared_error = 0.0\nsamples = 2\nvalue = 1.2"] ;
1157 -> 1161 ;
1162 [label="squared_error = 0.0\nsamples = 1\nvalue = 1.2"] ;
1161 -> 1162 ;
1163 [label="squared_error = 0.0\nsamples = 1\nvalue = 1.2"] ;
1161 -> 1163 ;
1164 [label="squared_error = 0.0\nsamples = 1\nvalue = 1.3"] ;
1156 -> 1164 ;
1165 [label="lon_sigma <= 2.3\nsquared_error = 0.0\nsamples = 7\nvalue = 0.9"] ;
1155 -> 1165 ;
1166 [label="vel_north_ins <= 0.1\nsquared_error = 0.0\nsamples = 5\nvalue = 0.8"] ;
1165 -> 1166 ;
1167 [label="squared_error = 0.0\nsamples = 1\nvalue = 1.0"] ;
1166 -> 1167 ;
1168 [label="vel_north_ins <= 0.1\nsquared_error = 0.0\nsamples = 4\nvalue = 0.8"] ;
1166 -> 1168 ;
1169 [label="squared_error = 0.0\nsamples = 1\nvalue = 0.8"] ;
1168 -> 1169 ;
1170 [label="down_gps <= -64.3\nsquared_error = 0.0\nsamples = 3\nvalue = 0.8"] ;
1168 -> 1170 ;
1171 [label="vel_down_ins <= -0.0\nsquared_error = 0.0\nsamples = 2\nvalue = 0.8"] ;
1170 -> 1171 ;
1172 [label="squared_error = 0.0\nsamples = 1\nvalue = 0.8"] ;
